317 50
*dt_0 3.3330164 -0.6329483 -1.9099041 0.929293 -1.4410785 2.0203636 0.7016831 0.85595196 -3.7999835 3.3589253 6.385989 2.6340234 -4.054998 4.04851 2.8375623 -3.2955449 1.844434 1.2280266 -5.484157 -2.3276513 1.699172 0.49765652 -0.03178236 4.551105 1.0868843 -2.3292284 -1.1572427 2.2765276 3.459161 -1.8666432 5.0502634 1.0338328 0.55502546 -4.209303 -6.034401 4.4778047 1.2577314 -2.2474875 3.9169443 -2.625534 -1.9310926 -0.13949393 2.842079 -2.8153453 1.4767592 0.041031707 -2.1256914 -0.76466733 -0.23875585 3.0779696
*dt_1 4.8198466 -0.64578617 -1.0674546 -4.934774 1.249384 -0.53893673 -4.7907944 2.5457156 -0.8497614 -4.0782466 5.2164617 4.697397 -3.2958176 3.6219926 2.9889834 -5.1123085 -0.547514 2.6019125 -6.5411477 -0.65784085 -1.8091413 3.1008992 1.4239875 1.7029029 7.0623155 3.513098 -0.05339423 -12.165398 -2.9152863 0.34501123 6.6243234 -3.9291105 -5.1508946 1.7255834 -0.6635233 7.2818217 -3.5457475 5.085334 -2.408424 0.97673386 -4.1760545 4.3747883 4.200635 1.4015169 4.074258 1.0279526 -0.70137614 -8.012313 7.9428716 5.767057
*dt_2 1.1956459 2.2394922 1.9937718 0.04752693 -0.76810044 2.2630823 -0.19311827 -2.359895 -5.2568164 1.154425 3.0375533 0.64647126 2.1772075 0.21230869 2.373838 -3.6869767 -0.49969402 -0.015617391 -3.056869 -0.5364563 1.7799047 1.0578856 1.6059855 1.4010105 0.8190345 -0.725255 3.02692 0.032614265 1.9824389 0.9888115 3.344769 -0.8225306 -1.7047509 0.59440535 -4.3870144 1.325606 -0.6065084 -0.2007434 0.9667012 -2.0240912 -1.541912 -0.02426716 0.47961646 1.0532645 -0.5882275 -0.7511937 1.1407775 -2.378841 -0.045754414 1.8982304
*dt_3 7.692235 2.641001 -1.0722587 1.505097 1.5651985 0.0036977695 2.1380024 0.47215068 -1.7245699 -0.9869806 3.2659152 4.671177 0.6638177 3.8284323 2.887727 -4.00682 -2.084211 -0.034503326 -1.062194 -0.78501827 -2.387153 -2.99052 4.821247 1.0883878 5.652416 -0.89388925 -0.04588503 -4.8833294 -3.0430121 -9.485503 1.9891701 3.9038432 1.6692538 -4.5084844 -8.216304 2.7837718 -0.7679916 4.2303433 1.1839263 3.399034 -4.6405253 -0.2675595 2.7159522 2.470415 3.4556975 -2.3224068 -0.6572053 0.9215256 0.3387737 4.051377
*dt_4 -1.5348748 -2.610886 2.209299 -2.3824751 6.7963443 1.8569635 0.07108264 -3.775353 -4.892201 -4.308812 3.8018465 -0.62409455 0.8569907 -2.7403615 2.3336565 3.6401176 7.9861217 -2.6437304 -1.3785096 -9.101489 -5.498271 -2.0878034 8.819207 -1.9840692 5.944703 -10.817543 0.8784395 -0.29168382 5.6479545 0.6709978 2.322577 -0.8788816 0.21805899 -2.6551282 -6.1523023 11.098344 -2.2981658 0.7542989 4.758268 -7.2947288 0.21321034 0.3597073 13.431828 5.6932397 6.691064 -0.08949694 -5.0531235 -5.480237 -5.669167 -1.4212825
*dt_5 3.402082 2.55718 -4.8021564 -1.251542 -5.580528 -1.9972519 -2.058225 -2.277505 -5.252879 -1.8723046 8.941038 10.664818 4.867147 3.1953552 3.8464708 -0.816087 1.4070075 5.569386 -1.5558635 -1.4296476 -7.4017606 3.311294 -2.1096623 9.008776 0.24983422 -3.5122886 0.743385 -5.604843 -1.8476288 -1.8737823 4.608202 -0.40650743 -0.10687534 -2.0231652 -7.8528743 1.3032222 -1.5150045 -0.0484571 4.34731 3.6400647 -2.3982747 -1.3693938 3.0329964 3.234602 1.7206578 -0.0107556 -5.3358154 -1.230599 10.8761635 2.8043537
*dt_6 -6.5900803 3.4307954 3.3277018 -0.4495344 -2.7844684 -2.6815903 -0.676378 -0.4953224 -5.9166007 -0.20930496 -0.068726934 2.0136218 0.76703817 3.0931995 6.019393 -2.188658 0.2933269 -1.9689928 -6.0922384 1.9131662 -0.63517797 6.76321 2.5680954 7.6862803 -0.82669497 4.008183 -2.7280347 -3.953368 3.4990938 -4.8201547 5.8294554 -4.765657 -3.6787994 -0.6682254 -4.8502007 3.3276498 1.195816 -3.1220248 3.669191 -6.61282 -3.8261273 5.027856 -1.3358636 -0.48556688 -4.8492613 -0.8538618 0.9076824 1.5476087 -3.1040616 1.7982488
*dt_7 -0.33891937 4.5532103 1.8304892 0.20248218 -7.8356667 -5.87241 7.339287 4.1760855 -3.6822731 5.5777464 0.095994 2.1324868 2.8329434 -3.6852908 -5.217924 -3.5005932 -7.299949 -5.9791365 -4.412039 3.8783476 3.4915 3.4335706 2.8038442 0.56067425 8.00226 0.21557401 5.466839 -4.1453633 -0.88588315 -4.052611 5.8233395 1.8187603 0.33072597 -0.9223341 -5.4505997 0.5660679 0.11417824 3.6401112 0.3541236 -4.104961 -8.288634 5.1182995 1.5583351 -3.3754451 -0.559336 1.7898972 0.43535432 1.751506 0.24314779 3.4706383
*dt_8 -4.63962 0.3443383 -0.1625508 -7.195065 -2.5022624 3.636433 -4.7101617 -5.221159 -7.354731 1.704127 -1.5496702 2.392011 7.6898513 2.466171 1.6708684 -5.7826943 1.8297379 -0.71969885 -11.350565 -0.39063457 -0.284704 7.463055 4.4232745 0.97175854 -0.08161664 -2.2445247 4.324487 2.5279026 2.800524 -1.3363909 7.780803 1.1650425 -2.345249 0.18115628 0.90622675 1.4950014 -2.2238655 -3.6523025 4.500936 -2.7401848 -4.5769563 -1.0491339 2.7637312 2.82606 -3.6655095 -1.0235521 0.5628662 -4.6632457 -3.0024464 -0.12409731
*dt_9 2.785464 -1.6863755 8.489296 -3.165598 5.621328 0.1109933 4.82366 -5.838021 -3.9254494 -3.2219803 3.2425098 11.172911 8.309609 -5.3062305 -0.5682719 -2.322578 5.7320566 4.5058126 -5.4675217 -3.845096 3.3336933 4.0773034 -3.5783627 3.660328 4.0033026 11.454321 9.744413 -2.601277 -2.3044775 -5.8918934 2.1526704 -2.2345145 -5.5878453 -12.103147 -4.361731 3.0991964 -6.0180693 -3.2742891 -10.129504 0.11052386 0.24263334 6.2285247 6.945103 0.092531495 -5.608951 2.0185328 -5.300367 -9.8246355 3.9701667 -6.0764375
*dt_10 -3.4932005 -5.3948045 -1.3823099 -1.7409524 0.35663897 3.656997 -2.4290876 -4.1086326 -10.731783 -1.3510659 6.52891 13.178687 -2.0929558 -4.585667 0.025328266 -7.3413887 -3.690423 -1.5687723 1.1166818 -1.5019363 -4.222781 -8.162449 -2.9136136 1.4334719 3.9042141 -11.176868 -1.0058956 -0.08278769 -2.0262978 -0.27517754 2.0151134 7.7770376 3.021434 -0.33528256 -7.9230113 6.4262595 -9.19816 -2.9014046 8.695666 -0.03861242 -13.650955 -6.387235 4.0062447 -4.914634 5.9172716 9.847475 -2.1314232 4.0308046 4.638315 -1.755682
*dt_11 2.520993 9.899381 2.1472878 1.1024048 6.65539 -4.9220204 -0.35768133 7.8994627 -0.2739956 -1.7856302 3.6879191 1.8673148 -3.5799768 -5.8012323 8.426291 -1.7111636 5.902351 -7.6884966 -0.44012955 -0.5493502 -2.833915 -3.0479696 -2.7500083 7.237972 3.591905 -3.1836765 2.679439 -7.3228173 -3.8728926 -8.107216 1.0615091 -5.146798 -0.48926148 -6.7332625 -4.0096364 0.2396198 2.2512195 -2.0186703 2.8848088 0.33769017 1.4137611 3.1308956 5.567806 -1.4679824 -1.093264 -0.23402205 -0.17849135 -4.3215656 2.3480244 5.792161
*dt_12 1.6494291 -1.8859472 3.6597698 -0.8335012 -2.5836275 2.7625685 2.7560203 -4.408675 -2.8188798 0.55591863 9.165905 6.9593306 -0.92087823 1.9293971 6.6082606 -1.2009541 3.8138373 0.5235053 -4.831637 -7.9225388 -0.18204081 3.5986757 0.32734632 6.4942374 5.80121 -2.9496357 3.525622 1.7634923 -0.38976082 -11.654318 5.562668 -1.2310091 -1.913949 -1.4652209 -10.052012 1.7962741 -3.321957 -0.7406416 5.379438 2.0747933 0.2735304 -2.0053024 1.0581886 2.486733 -2.2227597 -1.7630217 -3.6515565 2.6050427 1.1032172 3.3415272
*dt_13 1.1635557 -1.3535012 -1.5886288 2.3119063 6.6195455 -3.6301434 -1.3754206 -1.401212 -3.4012787 2.5577903 2.7159076 11.614728 1.368782 5.5120015 3.8270142 -5.8103313 -0.8163977 2.3983414 -3.0792382 -4.457103 -3.683314 -3.9138877 6.163905 5.822133 0.8944846 -0.8015312 -4.43306 0.95555955 6.118096 -2.4961467 1.3811706 -1.0753952 2.1468594 -1.9207151 -6.1805463 12.256865 4.582895 -1.1725084 0.998699 -2.5729754 -4.80532 -1.7755139 -1.994923 2.2270405 0.24195135 -2.2393565 -0.6852446 -4.3713226 1.003366 3.106965
*dt_14 4.2287683 2.7227583 5.093279 -5.7548823 9.721014 1.4746664 4.6400476 -0.33487642 -11.343497 -9.972054 3.8404584 12.002408 -2.5046892 -7.779138 -5.2670755 -6.3811407 6.2636533 -0.49740812 -0.63842225 -8.427439 0.0081484215 -10.014825 5.638074 -5.502668 2.432632 2.994143 7.491372 -0.1082404 0.65524185 9.287185 11.800544 -0.68030536 -0.67186743 -3.9921238 6.450576 10.294241 -8.940856 -5.6683016 -0.038272507 2.7487757 1.8728911 -0.19553272 14.542874 5.313902 5.7635727 0.37159967 3.5724843 -1.5108643 -2.5626261 3.9285173
*dt_15 3.0163019 6.731842 -1.07048 3.3025286 -0.13534127 2.4628148 -1.2250799 4.9139276 -2.2930984 4.762831 4.1236453 1.9903369 0.7108432 -0.8776112 0.14311308 -1.6941743 -0.80884653 -0.9138599 -1.2206237 0.31465125 -1.1576666 -1.1521431 0.94058985 3.8354912 1.7929665 -3.5306797 0.78540903 -4.079033 -2.8964052 -5.014264 0.8171751 -1.6134079 2.6142695 -0.7212194 -5.4983115 7.178758 -1.7830359 3.3467054 2.6994815 1.8921865 -2.9004877 2.2076373 0.29969323 -0.16216008 2.1574802 -0.261019 2.3853054 2.5824785 7.9190865 6.476192
*dt_16 -3.5419154 3.7980564 1.5231475 -3.369867 1.8614293 4.4941044 1.8456868 -1.6891556 -4.967995 3.851246 8.985017 -8.07612 2.5448992 -5.593909 -2.7182658 3.7659001 -2.5934174 -7.6411877 -1.6146001 -3.0948431 -4.236093 5.111213 6.4843583 5.6597104 3.047974 0.047072567 1.7263283 -3.051414 0.26419207 3.5335438 6.256044 -2.459531 1.5142502 0.11707455 -15.986527 1.3017308 -4.4876776 -1.042214 -3.0020008 0.5047923 -0.5445594 1.0139862 1.5295318 -1.3260518 -2.0425942 -1.8047569 0.7150519 1.0380871 -0.7571423 -5.005733
*dt_17 3.2765512 2.246278 -1.6774888 0.7592613 -2.8706472 -4.418668 -1.9626297 5.240359 -0.099489495 8.10154 -0.07116555 4.6952252 2.0216486 -2.3739097 0.24769133 -5.1411586 -4.735352 -1.694379 -5.0528536 1.6648467 -3.901678 0.82875973 1.3010343 4.359615 3.7000523 0.72662675 8.093938 0.97390836 -3.0185966 -4.731751 2.7870364 -0.8406341 2.2082021 -0.2323221 -1.0561864 2.264075 -0.21543351 1.286985 0.1370189 -3.0470846 -1.5632024 3.1823947 1.4184978 -1.5796877 3.1087291 -0.091873385 3.9488702 2.4764578 2.7863505 4.5756254
*dt_18 3.1227074 -0.26532805 -2.1642547 3.6609132 -3.2611678 1.5565152 -2.2782822 1.33543 -6.3968763 5.051548 4.2052965 2.0966306 0.48313883 4.6015286 2.0458984 -3.2784388 0.7931621 0.79296386 -6.376599 -2.504059 -1.0046054 -0.27861592 2.2717543 5.664736 2.9598258 -3.8084927 -1.9711448 2.1617346 2.57697 -4.9952893 7.1918936 -2.1140378 0.84476036 -2.4294302 -6.8769836 3.953525 2.4717424 1.1234874 4.515124 1.1253934 -1.6531779 -0.96293473 2.5124803 0.270739 0.11008098 2.5100205 -4.87439 0.09841927 -1.2145159 0.67553174
*dt_19 -2.4338136 -0.95777214 1.0781183 -3.0059848 -7.7147546 2.2749014 1.5704467 -4.0114784 -10.423331 4.251664 0.20417409 4.937832 3.823489 2.7100477 -4.337137 -5.213814 0.91242933 -0.9126959 -8.515415 -1.3732672 -5.1356306 1.8808755 2.3270266 -2.5557444 2.2088633 -8.096744 6.257393 -1.607049 -0.27332 -2.8162026 2.0951908 3.2449846 -4.559318 0.60414195 -0.4737939 -1.6858892 0.29431772 0.4879884 0.9629224 3.0199473 0.40961605 1.2975926 7.697654 2.095195 0.25532624 5.2179837 -8.094453 -3.7319372 0.07370052 -0.6221552
*dt_20 0.08167613 -5.1763234 3.1030252 2.9227717 -1.3713082 5.069785 1.823155 -1.3767506 -8.054264 1.6941013 6.5441985 4.799364 -5.6033134 -4.232448 -5.393597 -5.409167 -3.0337996 2.2324262 -0.40871203 -1.5205795 -1.2735479 -7.3555074 -1.4775671 -2.4557106 6.2280836 -6.702484 3.7785761 -2.0738313 1.6734316 -2.6335297 -0.73130333 2.3816805 -5.734286 -8.623157 -4.942067 6.191391 -2.8604662 0.24542458 -0.41935134 0.22300605 -12.487474 -0.15268338 3.8123355 -2.760837 7.650097 2.112887 -5.0478096 -3.3836684 0.57969713 1.6123208
*dt_21 1.7821717 9.476741 0.52004635 -0.98016787 2.978008 -8.049364 3.5080323 6.42674 -5.8219347 -8.450307 2.8163793 6.240329 -6.44891 -1.8821135 4.891396 -2.1223326 6.348187 -3.7125332 0.2812469 -0.710662 0.5623959 0.5522566 -2.6130435 7.859857 5.643103 -0.15349814 6.0799794 -4.9391904 1.9096262 -1.6245348 4.0208945 -7.0962763 -2.605418 -14.003454 1.1528594 0.75316375 2.403819 -3.8079774 6.6302915 0.093473814 2.9171245 4.104851 9.47132 -2.2935846 4.6631494 -7.2797747 -1.8059121 -6.020617 0.6939044 9.3219795
*dt_22 -2.314307 0.7971252 -0.3803492 12.97338 3.5923688 -2.4206514 4.0820446 -2.9634492 -11.419151 1.4724796 2.9614043 7.427529 -1.6826841 1.0654523 -3.486195 -5.5434394 -0.22922061 10.857427 -12.962639 -4.699654 -3.2765229 -0.67682815 1.9905925 10.067127 -2.1677096 -1.1070069 13.749043 3.1189961 -2.2714071 -2.3859231 6.2452602 -1.1333877 -5.2667894 -9.836758 -3.9368317 -1.6604491 -10.93937 -7.669968 -3.1933446 -0.46292856 -3.1287372 -0.34741142 1.9862562 -2.138749 2.7480693 -3.235443 -0.0768096 -2.8704886 8.694981 0.33218777
*dt_23 3.7247577 6.85871 -3.1927328 2.6090124 -1.0727767 -2.0485473 0.941853 3.0937445 -0.25978827 7.11502 3.5764556 0.91147625 1.214815 -0.04687982 -6.238156 -5.741218 -1.4200734 -2.8259218 -2.4345326 0.9987666 -2.2996495 -1.8232518 0.42623088 3.383109 4.420923 2.2640817 2.1315618 -5.139003 0.21291772 -6.6382103 -1.0368917 -2.0793865 2.9970646 -6.938066 -4.0204577 2.2523541 0.39787045 3.740442 -0.55856365 1.4277397 -5.244325 1.4043685 7.885538 -1.0073254 1.8863858 3.0353382 -0.714837 3.413678 6.5411434 3.6649206
*dt_24 3.6562874 -3.1710331 -3.0448122 2.1201515 6.8327928 1.3919877 -6.3902316 -0.5213675 -4.883496 2.0548904 11.53971 11.312587 0.7481079 2.8235693 7.8903084 -2.4485996 3.1821039 -1.2804667 -4.070172 -3.3023782 -0.70585585 -2.1596293 5.5656633 7.533443 -0.8645395 3.2824492 -3.6557882 -1.6929651 8.407178 -0.03595506 6.819451 -3.0021532 2.7843702 -6.0961585 -4.990004 13.975287 5.2246895 -3.823063 2.2232118 -5.198757 -3.2919822 0.046629194 0.11475903 1.280246 -0.20714353 -6.223054 4.836378 -1.8695847 -0.87790054 4.069658
*dt_25 0.1548342 3.4293218 2.4471304 0.8140104 0.88960636 -3.7422388 5.271321 2.011872 -3.1614563 2.9737408 3.2772217 6.297104 8.708571 1.8218731 8.449231 -3.9108481 2.3874304 2.1167028 -4.0381794 -3.9134984 -0.12663393 1.7447675 5.1004376 3.5963464 2.6102142 1.2765008 3.378485 -3.0904052 6.134545 -2.2826405 3.1885438 -0.8484614 -0.86803037 -0.66126776 -1.03675 6.4696136 4.9430947 -2.218361 1.0892318 -1.7230335 -5.73151 -1.0419314 0.6564652 2.7980804 -6.155039 -2.2777314 5.391957 -2.7997546 -2.137223 2.1050096
*dt_26 -1.2060283 2.268677 -1.2104706 0.55417854 -0.4488957 -2.103538 2.0302994 0.20553944 -5.960744 0.10088398 1.2664227 8.534652 7.5415597 1.1462953 3.5790484 -4.3307753 5.5075293 2.4037237 -3.449815 -2.6092412 -2.229668 2.2595727 4.9574027 2.7967691 -1.0402142 2.8721566 2.7476401 2.4066768 4.1073036 -0.78407365 3.1763065 0.39958712 0.80278105 -6.2095423 -1.6104847 5.7831373 2.8833923 -4.8957562 0.35438114 -0.7898445 -2.9121835 2.0268135 2.7327428 0.2789743 -4.1626105 -2.2574544 1.4895612 -5.933805 4.2275586 -2.4857612
*dt_27 -1.5536107 2.0739372 1.1357355 2.4214478 -1.3046429 1.9405673 3.5239882 -3.8126369 -9.110063 -3.2107613 7.4980717 5.776714 2.9619226 0.3859502 -1.9951998 -0.17835307 -3.4340758 1.3087289 2.4287977 2.0640254 -6.9682856 -5.107195 3.682712 -2.5409389 4.0466046 -1.9522147 4.570161 -6.317986 -1.4744923 -5.5149183 3.005376 3.4579515 0.13828336 -5.169926 -7.1819973 2.6652346 -2.788544 1.0512365 1.6608323 2.9066882 -2.4984694 -1.2964473 0.48719132 -1.27202 6.874082 -1.9602599 -3.2273912 -3.2250514 -1.1521494 -5.726305
*dt_28 -0.41295984 3.6049504 0.8343588 -7.179387 -0.696943 -5.670622 1.0769529 -4.43531 -2.764025 -5.1774807 7.325501 4.852904 -9.424036 0.86755306 0.6882105 -6.6671333 -0.73507386 -5.8054867 0.17863633 -6.0441804 -6.6580477 -2.351235 0.58370763 4.21342 4.963343 -8.535375 1.8381855 1.426649 -9.917206 -1.8635901 2.0545185 -0.2626037 0.84543836 -0.01628325 -7.247397 0.72541314 -8.011716 -2.6412017 8.003153 -7.9913983 5.700033 -1.0811057 8.608473 3.4093919 7.447257 -3.6697764 1.9229358 6.21714 -0.8056954 1.2714987
*dt_29 -1.7784162 3.6542256 -0.42951223 1.212698 -1.4942296 -0.7448319 -6.7674036 1.448254 -5.175222 0.46189186 1.4788811 7.0744786 1.3557663 1.5335072 -7.135303 -0.6495226 2.2316625 -2.6415267 -3.5879602 -1.8488348 -1.6341201 3.8937764 2.6851656 9.705613 -1.0674961 2.3357441 5.29948 -0.02478848 1.5714937 -3.2745702 2.2729769 -5.1290402 -0.7844322 -4.1848593 -0.85513926 9.99613 4.1903157 2.12143 1.3962688 -2.6927884 -1.046163 4.1227508 1.1731061 4.2532034 -1.8449557 -4.1180677 0.8734964 3.775427 2.5160654 2.1179557
*dt_30 -3.67401 4.8974752 3.7273574 -3.0697112 -0.19337317 -3.2238 -0.21313651 2.6709347 -6.411671 8.316694 -1.0675155 -0.26876965 -2.0670943 -0.15886405 3.3295958 -0.39235938 -0.31421313 -7.4813185 -6.428194 0.7772509 -2.659766 -4.184848 0.17689694 6.1403117 3.2547295 -5.0567937 6.402957 -2.637268 -1.321194 0.46402445 -1.0259084 -3.9638433 -5.916529 8.918122 0.7257976 0.49028206 -2.722124 -8.538037 5.0684094 -8.020969 0.8659139 3.6862686 3.2491124 0.40076792 -3.165885 2.4622602 3.326354 -0.6233264 -4.9577208 1.9168631
*dt_31 4.088484 1.532112 1.1987311 0.85621184 -2.7667925 2.012747 0.035351284 0.3494701 -7.5913506 3.700448 0.49948388 3.2764235 -0.3007341 7.4963064 -3.0953622 -4.880436 1.8884964 1.2446223 -8.137255 -2.8178353 -2.9305356 3.0550342 4.4806504 0.40711856 -0.2779428 -4.0055094 0.47041407 -0.266786 4.196159 -6.967585 4.684484 1.376001 -2.0471935 -1.5873721 -4.472 3.6960804 1.8926235 1.0604244 1.8439637 3.4959733 2.722787 2.2185717 3.8076637 1.7686255 4.1707993 1.404703 -6.492199 -3.1652553 -2.1417832 -0.39178598
*dt_32 -3.9644876 3.7195272 -0.32098192 -3.3247678 2.3421502 2.674368 2.4186819 2.1493452 -1.745977 -1.8399258 -0.3531716 -0.5821019 1.7546444 -1.6112944 -5.267174 -8.72107 -1.4058772 -3.2567866 -4.3225813 -2.534072 -0.57255346 0.06291073 -4.0823016 -0.04747796 4.557877 -2.0694242 7.617408 -3.1220813 0.5396472 2.570942 -1.13614 -3.0034673 -4.382543 -0.17769888 1.0329342 4.053747 1.626484 -3.8314147 1.3730781 -1.4688153 1.989724 1.4492031 2.374612 -1.4286673 -0.1390663 -2.8787313 -1.425626 -6.0839605 1.9703013 3.5418117
*dt_33 1.0443883 -2.8974383 1.0188445 5.1837025 -5.0262504 -10.399931 5.055843 3.9440966 -4.822247 -1.7699426 0.24855953 6.781374 -0.44706824 4.770898 -3.6934292 -13.552499 -3.8189936 5.607182 -4.105112 -2.8952048 -6.220295 -0.037604738 -6.0807667 2.127916 4.7705626 -1.2198496 4.507716 -3.6391547 1.5538745 -1.4428998 4.4834585 0.6150197 -3.4212265 -0.7857199 -2.2759013 0.9664306 0.6937399 -2.593857 -5.668156 -1.1673951 -4.3023424 6.7994857 4.8284154 2.4480398 1.0663565 5.1022882 0.07045533 -9.963922 3.4761894 3.2029788
*dt_34 6.09193 7.712263 1.5267899 -0.19384107 -4.0812902 3.2532196 2.6731234 -3.7401652 -1.2956235 1.9025701 6.527898 4.3354006 0.9978332 2.8513994 0.81205165 -2.462825 0.15681371 -1.5365505 -6.205194 -1.9940144 -3.0948074 6.100789 3.7900994 0.06489204 2.9980643 7.307083 4.260103 -8.133191 -1.9178383 -11.850431 2.4058185 2.9122643 -0.42224818 -6.1583815 -2.4750178 2.6711543 -0.3529246 3.8567197 2.3803108 1.053861 -4.524681 1.1284708 5.978951 4.4558554 0.96034795 3.4179902 -4.988275 -1.0614853 3.7044523 0.8845983
*dt_35 -0.9123958 1.0180849 -1.9585385 3.5253556 -4.0281286 -5.2417717 2.37449 4.9368086 -4.191096 6.217476 8.894492 2.5799882 5.0225205 -4.0836945 1.76896 1.3474711 1.2732922 -0.46527952 -3.5024204 -2.7642913 0.65559304 1.8292443 2.8181965 6.2679586 3.494736 3.3181977 4.558237 1.2132729 2.1851065 -1.062036 7.250056 -1.6004262 2.0495107 -0.7132987 -4.496214 5.5804296 2.468715 0.57073605 -1.5847085 -3.260427 -6.887518 2.5684938 2.5890062 -1.0601641 -3.6014986 0.2511648 4.143443 3.571869 0.3369034 1.0975778
*dt_36 0.27011502 0.5971918 4.903843 -0.05240824 7.136757 4.2689195 0.22461626 4.845138 -5.668421 -0.88886493 4.065914 3.7180588 -1.0580943 -1.4052466 9.058738 1.1042473 0.20487227 -1.3580294 -1.2314227 -0.24495135 1.8129696 -0.43483442 2.3366685 6.7369757 5.6682515 3.4974692 1.3637875 -2.132262 2.0371442 -4.195568 -1.4796677 -3.5698016 2.775711 1.6325463 -2.8997407 12.253553 0.746427 -0.54770905 -3.067285 -2.2359853 -6.1478558 1.6207929 1.6474869 4.460539 2.256728 1.5791987 6.0009427 -0.4882363 -1.0355809 4.6919355
*dt_37 -6.884459 5.462941 -2.4139915 -3.3993046 2.7932346 1.2119868 -8.123322 -0.06814623 -6.1985207 -1.4675664 2.7233334 0.4752895 3.4025886 2.0190735 -4.140085 0.36066884 -1.3831481 -2.3179815 -4.316282 0.16682883 -5.8003983 -0.6033541 1.6409603 5.1619854 2.0376074 1.7663835 4.4344277 -4.415495 0.33617583 -1.5131849 5.5830317 -9.590245 0.4658591 3.874111 -4.8691044 7.1437488 -1.8396804 -0.7555033 -3.903144 -0.30915156 3.229334 1.7765876 -2.2735963 3.507971 -0.94842803 -6.2182984 5.1036654 -1.966797 -3.367748 -2.3179636
*dt_38 0.83402795 4.962924 2.0336719 -8.065106 5.9092326 -7.630559 -4.1829915 -1.4160131 2.4949713 -1.668956 -2.0473762 -3.747116 2.9387145 -3.8181233 5.2818127 -5.3188114 0.6470686 -12.916051 -4.7845454 -1.0268155 -5.1035686 10.573191 -0.04282006 7.624418 6.350217 -2.8221376 7.8363395 -0.5605699 -11.293971 -7.931633 6.817853 -5.5636024 -0.59863955 -6.22393 -8.07672 -2.5277245 -2.3324664 0.60219806 -1.1782355 -3.055053 2.5152516 5.6894736 11.225337 -2.6695027 -3.1671228 4.260362 -8.006645 -1.8258237 2.3437085 -0.84369075
*dt_39 -2.7416883 2.9545934 3.0086377 -1.496325 11.000357 -1.7338208 -4.2958317 -4.8575115 1.40253 -1.5007081 -2.5352993 0.56108326 -2.2264483 -4.731478 0.43633026 -2.7511358 -0.04988851 -13.40114 -0.06829368 -6.1769876 -1.939715 3.0308852 0.7719857 15.682959 4.851014 -6.177213 9.305204 -6.103 -7.877306 4.3880286 6.013752 -5.395401 -2.1376138 -5.763457 -12.420887 2.2702823 -8.65789 1.3767512 4.9370494 4.1241155 -1.6999931 5.164726 8.114158 -4.712772 4.2380767 1.7013773 -9.643357 -0.706458 2.3475847 -0.26925856
*dt_40 -4.3547087 -2.5634022 0.61215633 1.8473278 -3.5559547 4.5570807 1.7304206 -2.9124405 -9.311174 -0.3330591 5.9913974 4.0950584 -2.4477303 -1.2482641 0.66878647 -0.8296484 -3.1550798 -0.13182136 2.994164 -1.9278703 -4.056032 -1.8827983 1.4534678 -0.6349373 2.2623723 -3.272854 3.5181642 -0.74966204 2.299303 2.8118353 6.25516 1.2116017 -1.551804 -4.9656086 -6.7626133 4.048353 -3.5941448 0.24459592 -0.4780393 -1.715015 -4.5583167 0.083143026 -0.24114278 -2.5987434 7.7171464 -1.3274093 -3.0981529 -1.6723045 -0.11755944 -1.3043735
*dt_41 -0.92340755 -1.2431426 -1.5041531 4.6824417 5.796409 4.5001273 0.0978291 -2.3573759 -2.3685462 3.3806179 4.6470203 2.3884351 -6.209558 3.1544268 2.0642912 -9.958922 2.6719136 -1.6186063 -12.906218 -3.9721804 -0.19640657 -8.963151 5.646787 -1.393345 -1.6568527 4.193926 6.5751853 -1.6544025 4.795015 -5.4616313 10.379075 -3.7649984 3.4858267 -6.734247 -10.227699 7.0227327 -1.6634009 -2.270275 -1.924596 2.6028767 -1.1724824 -3.3408282 0.7413799 -1.1626112 -4.7288475 -0.162743 -4.774056 -1.3319005 4.95567 2.787589
*dt_42 1.0939865 0.550965 4.6883965 -2.8729944 2.900226 3.6992142 1.552018 -1.1566757 -9.368678 3.0138645 -3.4567752 5.0391316 4.8009734 0.17860176 1.3605119 -9.367834 -4.1139135 0.13553584 -3.2111077 1.3398042 3.1051679 -3.7576194 3.8593607 -1.4061688 3.1056104 -3.81651 3.7960439 0.47520572 2.1550162 -3.4470062 6.3875294 2.3651311 -6.651549 0.46359482 -4.813912 0.5410358 -1.5082654 -2.049218 0.5419704 -0.35377336 0.050597712 -3.0194273 -1.0155225 2.3468254 2.7917144 1.4146066 0.08980682 -0.24020673 -3.94722 -3.148251
*dt_43 1.9972253 1.1324631 2.9517143 1.0053495 0.54927987 0.29966345 2.368762 3.1903615 -9.006035 0.32426465 -0.3043969 1.5950502 1.2466925 1.5527775 3.0712209 -5.141118 -4.9268327 0.46392775 -2.2174022 -0.027524203 -2.6217372 0.38629392 5.8257422 -2.2343202 3.3381243 -2.677595 2.908125 -5.998048 -3.1389363 0.3524553 8.850428 2.2796175 -6.258721 5.9147816 -4.5323606 -0.86335534 -5.2846475 -0.21137607 -1.0175017 -4.6476817 1.391202 2.2234085 1.6030905 2.2111883 7.749243 -0.606989 5.062276 -2.0423734 -1.0709198 0.6931529
*dt_44 5.6972594 4.6328197 2.7087615 1.0693171 -0.29371932 4.3236127 1.6522753 -2.4997587 -3.0709083 2.3939772 10.308757 6.777195 -1.072208 1.6855918 -1.5160317 -0.40940893 -1.779488 0.13092342 -3.4062123 7.3007736 -3.8929913 -2.2858577 0.71259487 -0.21673617 2.7766578 2.1900153 1.8352904 -5.2161026 -2.892341 -8.566626 -0.70126164 -1.1418257 0.17308143 -12.953263 -3.143185 7.1548567 -2.1534052 3.0288255 -2.0030293 -0.55422956 -7.3305826 -0.3819971 2.5411563 -1.2464491 5.3643155 1.4120952 -6.5354643 -6.2967477 7.5714073 -0.88965094
*dt_45 -0.86888397 -0.16596058 4.9580927 -3.4732459 -1.3420391 2.6063564 -4.8107142 0.26562795 -8.562175 2.2341537 -3.34598 4.0023046 4.3926387 3.4191687 -3.2277489 -7.449171 1.0102234 2.691281 -5.742742 2.2623966 -3.068233 0.44484487 -1.1222341 0.027468856 0.8287314 -9.013348 1.7934587 0.77094495 -0.28993875 -3.4762287 0.09382524 2.074528 -4.687201 2.3709903 -2.6286852 4.4473314 -0.7856101 -2.3955328 3.2246935 3.564094 1.8653263 -3.339811 4.3498173 0.2437531 0.8248808 1.5567838 -1.6286162 -6.1757956 0.12393835 1.9044671
*dt_46 -0.43786567 -0.8124012 -3.8472095 -3.1802466 -4.900167 -0.63917947 -1.7731801 2.2024744 0.032031644 5.079543 4.297803 0.4478818 1.8817662 -1.688972 -2.7679088 -2.1947608 -2.7302377 -5.9147625 -5.581185 2.1178722 -5.0774174 0.68365216 -4.5295157 4.0887365 6.177571 1.4361659 11.216716 -10.833251 -5.749816 -0.12425608 1.0797116 -3.3652675 -1.9769305 -2.4344099 -3.2129018 1.1401109 -0.90580803 5.3322763 -0.29332286 -5.349762 -7.019584 4.6353393 3.997039 -2.4668467 0.56758165 5.500313 -2.5111778 -0.97783387 5.6638527 -2.3441553
*dt_47 -2.328045 4.366533 4.2925563 -3.183888 10.385507 3.4882996 0.6915936 1.750384 -8.059682 2.0519185 -2.5751705 1.580581 -3.560511 -3.5006354 1.4313805 -6.802285 1.0851159 -6.3477035 -3.3886983 7.310961 4.4613466 -6.1296444 1.255272 0.14220211 0.20564076 -2.23608 -1.8291093 -4.5514565 0.29450715 2.872458 2.7208307 -1.3404236 -1.3730066 -4.32407 -0.12530266 8.787869 -4.299487 -0.5595497 -0.78399146 0.6356191 -1.4342451 4.8751936 3.4471467 -4.1696467 2.980158 1.1874479 3.0345669 -3.532057 -2.572305 8.682904
*dt_48 -0.98445827 0.6685458 1.2432543 0.11461983 2.356609 1.5794946 -0.34494537 -3.0293405 -5.838359 -1.0407454 2.421558 5.9332466 7.79818 -0.1377682 1.9541924 -4.265584 -4.4197097 1.8954599 -2.6113894 3.606655 -2.0920687 -1.5198368 6.809892 -0.8903656 1.9445635 2.9074433 0.99974173 -2.441283 -3.4011226 -1.4617913 5.6124372 4.2195907 -6.035467 0.8670803 -3.380962 -0.06763319 -4.2365 -0.034100432 -1.0285031 -2.002792 -3.0766375 0.16520616 1.1364052 1.1139326 0.6038785 -1.627001 0.5048002 -0.6707044 1.0714012 -4.0838904
*dt_49 -3.8688293 -3.7829313 -2.065483 -1.2454972 -5.9656615 -1.8095567 2.2165036 3.6076572 -10.649497 3.853049 8.014687 -2.2743983 -0.23995897 3.3435476 1.8036103 -8.801835 6.778394 2.8043995 -2.2785473 -1.1741251 -3.0242195 1.8337649 0.9956783 -6.345773 1.7962013 -3.4213257 0.68169266 1.9062861 -4.1907516 1.273311 8.270079 4.9694285 -1.7237015 -5.7835917 -8.08363 2.9242508 -8.559353 -2.174565 -2.283367 -1.8452893 -0.47528473 4.2855306 9.953414 -8.423605 -0.24174419 1.9066693 0.023557663 -9.308561 1.9725711 3.0119836
*dt_50 -0.5171325 1.0556983 1.4941045 -1.2241391 -3.9170034 -1.9899784 -0.17138839 1.7761708 -5.767623 -0.50190026 1.9172947 5.0628643 3.0324697 3.3518498 -5.8012376 -8.751217 -0.7747859 2.3233151 -3.1703253 1.892023 -3.5080025 0.05096294 -8.53302 1.2417951 6.360926 -3.3937948 0.53201336 0.2917203 -2.5631046 -1.7111301 -2.9374802 2.6991456 -4.7702575 1.3265452 1.8219457 1.4256943 -3.302081 -3.9282954 2.6716402 -0.70540226 -2.1436563 1.7663326 6.1957426 0.5742324 -0.031700015 6.7265754 -1.6841305 -2.163615 6.7408266 2.3843484
*dt_51 -1.943722 -0.18511496 4.408217 -0.20325527 4.4120016 4.3063445 4.0865083 -2.870507 -11.807081 1.9811015 1.9456104 3.1592803 2.2608223 -5.074542 3.588781 -1.7364178 -2.053573 1.06148 -4.6137114 -2.2631762 2.5454984 -4.2451515 2.7821667 1.1787908 4.0065928 -2.7090375 0.8910209 -0.2711899 4.8925343 2.572637 5.766978 2.8467228 -5.7289925 -1.0217903 -5.63665 -0.72105 -4.0607643 -4.410856 2.5045452 -4.3847246 -5.9465427 -2.802874 1.2459652 -0.64932126 5.7912183 5.0541883 0.88818455 -0.6728703 -2.624126 -5.928867
*dt_52 -2.3131063 2.442988 1.9692625 0.5948844 3.8002963 2.151852 0.8920794 3.270732 -9.127348 2.941355 -2.0545712 -0.58278716 1.9499745 -3.1639142 -2.2837274 -2.4414303 -0.26115915 -0.07232478 -6.467404 -2.2033572 -2.4061797 3.1399891 4.65025 2.103149 -2.5455966 1.4382647 5.992539 -5.7206078 5.487188 3.2921932 5.315635 -4.7827873 -8.706701 -1.2196684 1.3303801 8.799459 1.9328258 0.53376967 -4.1643357 -3.620326 -1.3584918 7.1727552 -2.575185 1.7267346 -3.952898 -2.8649294 2.976965 -6.5026264 -0.1630244 2.4272428
*dt_53 0.4464109 3.5141258 2.625645 4.7826214 -1.2346042 -1.8209206 1.2285769 5.468967 -0.62114185 2.1671152 -1.8088473 6.1511536 8.822785 -3.7310164 2.726293 -3.55966 -4.693536 2.6647668 -4.8342543 -2.9241645 -3.5384371 2.1274123 1.2072334 7.0984826 2.5373802 2.1008496 7.796188 -5.266103 -0.91077775 -4.2768836 -1.7769467 1.5370317 -1.2116554 -0.4761546 -2.2846413 8.525071 -0.78135026 1.9424887 -0.46517667 -3.1595018 -11.940827 3.4008632 0.7880456 1.5624111 1.3144113 0.78572977 3.525225 1.7733113 9.763109 4.1161904
*dt_54 -5.2128825 -0.13447654 -2.6904829 -6.8617616 -4.7448134 -0.6146175 0.030188475 -5.011484 -6.0463767 -1.6807116 5.2955694 3.892579 2.757713 2.593204 -3.9568138 -6.3964844 2.023092 -3.8981485 -6.218039 -2.0200498 -2.7323103 6.3055553 -1.4172186 -4.9262166 0.93342084 -11.046872 0.8948819 0.9365196 -2.6281993 -6.729613 1.2184149 -2.5557177 -1.9143404 0.05446241 -1.3885218 3.3771222 -2.5259159 0.13512887 5.080942 -1.0231637 4.352991 0.29140955 8.856361 3.3332262 1.1053649 -0.8795083 -4.8552833 -6.5809064 -4.670541 0.7345875
*dt_55 -1.2543237 2.9158778 -2.8990843 -2.3606887 2.9330268 6.208884 -2.1807637 5.7698073 -7.22987 5.425961 -0.31254736 -1.8350629 -3.6778624 -2.4371169 -4.7691736 -5.9478908 6.53745 -6.7439566 -12.150172 -0.9082326 2.9360344 -2.540191 -2.1967194 12.679334 2.4668381 7.1595025 4.4482903 -4.703858 3.3125112 -1.1847545 6.271622 -12.134089 -2.0539079 -10.461596 1.0300314 4.984905 2.7209036 1.0995002 3.8804934 -3.822064 -4.178833 5.983973 -1.0438055 -3.260618 -7.382935 -0.46462727 -1.642814 4.338783 -0.4016512 4.218814
*dt_56 -4.8837376 -4.602004 0.71069765 1.0601646 3.194905 5.4131966 -3.4640226 2.5369802 -3.6160254 0.99611956 -3.9939632 -2.5273108 2.925837 -0.88783085 4.225336 -6.408239 -0.14429483 -2.3195646 -5.783531 -6.09969 -5.8130393 -3.3490305 2.2733066 0.22466575 2.1845644 -3.2818086 1.9132291 -1.3521869 1.6066227 -0.5198153 1.8012953 3.7854476 -2.3634112 2.545365 -3.6969664 4.1890526 -3.9049695 2.2487476 2.2195895 -0.8345616 -4.4509654 3.9210782 4.789485 -0.8241037 3.029573 4.196096 -1.1422352 -4.272903 1.9257473 1.0226175
*dt_57 -1.2070738 5.593355 -0.001449774 3.6241753 0.044339746 0.3816296 0.3792347 7.6600595 -2.3027916 -0.17196408 5.2118416 7.523492 6.11367 -4.834039 6.49301 -2.998904 -3.3243437 2.4874482 0.5343859 -5.113991 -6.09439 -1.7843997 -7.401961 3.822263 3.023683 -0.49179506 5.0263753 -5.2252736 -1.2394451 -4.4311495 -2.5808046 -3.8100724 0.06930781 5.203442 -2.8151653 5.9523478 -0.9775181 -3.2261531 1.5323212 0.0047936 -3.3853421 0.6319243 -0.32250047 2.0439708 2.685017 -1.1242629 4.348391 -2.083759 10.061198 5.405985
*dt_58 -2.79524 4.192431 4.9397206 -6.1508484 4.9967337 0.48039562 -0.96890813 2.070303 -6.3125896 -3.2449884 0.95989656 -3.0267227 0.2763255 -0.75278836 -4.16961 -5.7059784 0.3705273 -1.539834 -1.403827 4.6326966 -4.664399 -0.4631761 -3.4057524 3.8998618 7.1639524 -0.035126895 2.526368 -3.5102673 -3.2186017 4.2235465 2.238002 -5.005049 -4.021092 -3.6901882 2.7445107 1.914732 -1.6027254 -6.6337924 4.9614 -2.856567 -0.42366385 -3.1502697 4.2716827 -5.594127 -1.3263324 -2.2987645 -2.1980853 -5.694748 -2.7032583 7.189717
*dt_59 -1.9868516 -0.5079653 0.91164786 2.023252 0.38809898 3.5480268 3.0427501 1.5178039 -7.300611 0.626315 3.7221138 0.3228759 -1.9426707 0.8527218 1.6140206 -6.362871 -3.0941472 0.1334758 -2.657956 -3.906878 -4.812584 -6.0243173 1.6336372 -1.2386175 3.2530444 -0.7867684 -3.2613182 -2.6620867 1.2237747 7.5151076 7.14845 0.59712934 -3.348619 1.6971741 -5.386963 3.702927 -9.297868 -1.3923969 2.7487707 1.3912287 -4.1146927 -3.4890373 4.20523 -1.8891541 3.4732518 2.4698834 -3.410207 -0.49076927 0.839691 2.687274
*dt_60 -2.8765001 3.5256183 4.1053715 1.4167738 2.9206643 1.510931 0.32263896 6.1147485 -4.334369 -2.8730216 -0.7365678 6.431491 8.315631 -1.7704118 9.600317 -1.2917371 4.2587094 2.6108093 -2.2813196 -5.7814827 -4.035852 -1.0022025 0.19308938 4.5865355 -0.010842839 1.324269 3.4063401 -2.4105601 1.7874967 -0.98010236 -0.539681 -3.3206348 -4.32675 2.4667177 -0.46641165 6.339145 0.8307267 -2.5657513 3.1617954 -0.8722657 -4.890707 -0.5137273 4.0932326 4.905261 -0.5245819 1.5701427 0.8272156 -1.309767 6.5580883 1.6536882
*dt_61 1.888511 1.3967099 -1.3295444 -0.25341427 1.1469582 -1.8184034 5.1767964 4.3767304 -3.1808286 1.2261622 4.6691017 2.3137221 6.295656 -3.2428079 4.401153 -3.6255019 -1.0364456 4.1199293 -1.8107338 -4.9112816 -1.1483132 0.66741055 -0.030654902 2.7245147 3.3842814 -0.08415123 1.2451656 2.4744732 1.0983188 2.5528831 2.3201084 -1.6909566 -1.4249451 1.1273417 -1.9715959 5.8598623 -0.95727235 -1.2553602 1.6752009 -1.5683558 -4.4202285 -0.42109683 5.583996 -2.211014 2.4185042 2.271753 0.30459872 1.438364 1.4131056 -1.1546634
*dt_62 -0.48929304 -1.9597554 3.2763476 -1.4619642 6.1218677 4.21181 -0.30732757 -0.7469175 -9.050161 -0.86013967 0.9648524 11.155307 3.5001261 4.125352 8.698444 -4.4219255 5.8695393 3.2562892 -7.0259995 1.608498 -1.0786318 -2.7669017 2.7609606 4.9093027 -0.2934642 1.6098899 -6.456347 1.9246829 2.9244046 -1.3392122 1.5099014 0.618276 0.09821746 -5.181134 -5.716311 7.4978304 0.039323166 -5.2825756 -1.5713044 1.4149835 0.89083666 2.6550016 5.2463713 1.0197415 -4.604833 -0.25667945 -0.9067065 -4.078564 -1.3650463 2.7012324
*dt_63 -2.9183877 -0.8922468 0.9195409 1.5070417 3.323417 3.2152948 -2.4724917 -1.152073 -9.66753 -1.6072899 0.88501006 4.6430016 -2.1452866 -3.4944978 3.4536111 1.6534163 -4.4317007 -2.9537945 0.37755513 -1.2299114 -3.9080787 -1.9974605 2.757048 0.07796883 -0.9489444 -4.2368584 -1.3887988 -7.26042 -0.3456292 1.1129267 5.2400923 1.4967525 -5.3461666 7.191056 -6.048758 5.5487237 -7.564656 2.707317 2.322622 -2.3522806 -3.287327 4.131794 2.4247096 0.4027027 7.9340897 6.7390437 2.75274 -2.2459471 4.1195755 -2.1058054
*dt_64 -3.4462957 3.8653982 -2.622033 1.7016608 -7.278776 0.60478836 -1.7499877 0.49815062 -3.4706855 4.2571836 2.208454 7.6950397 6.585672 -0.08644732 6.2355714 -2.7807362 -1.9366255 -3.669164 -7.1480536 -1.1486197 -4.5472946 2.7357478 0.12340833 5.3766356 2.266919 4.277288 2.1455986 -5.23776 -0.8156607 -8.616806 4.617735 -0.6101119 -2.4143136 0.09786028 -1.4939781 -0.032126427 0.6074145 2.7328188 3.9425282 -2.0178037 -4.942302 3.4353333 -0.45037258 2.8222067 -2.2481134 3.8148112 -2.1587262 3.9190674 5.6136436 1.5119424
*dt_65 -4.0621676 5.4338346 -0.6452244 1.6460327 -2.4320943 0.43594775 3.626487 -1.067907 -6.16132 1.2117491 2.899306 -0.45171946 1.4157591 2.3268528 -2.139665 -3.934038 3.0509858 -3.6723201 -2.068322 -2.2586849 -3.2582803 3.2155774 -1.6592911 -0.52177423 1.3325708 -4.1791253 3.4532187 3.8805208 -5.072344 -2.432343 1.2857163 3.5807984 0.38113743 -3.8416975 -4.3358426 -0.938891 -3.2136068 -2.0622497 1.5917319 -1.4111844 0.48406038 0.857625 5.72842 -0.8732819 3.09826 2.3555253 1.692232 3.486992 0.95963395 -4.2610383
*dt_66 -8.882712 5.9765816 2.2050023 -1.3319097 -1.6787103 1.2244083 3.007118 -2.3626769 -6.746519 2.416316 -0.56864136 -1.4151323 -1.8358724 -1.8486063 -0.4278318 2.493107 -1.0990354 -4.1933303 -4.9924564 -4.0601535 -3.0881166 1.2349229 1.9652988 4.5651174 1.7488761 -2.2371473 3.6822913 -6.0790467 3.427695 2.5767612 0.75354785 -0.93710786 -6.2968874 1.8216954 -3.8108425 1.9350353 -5.3040357 -4.7099667 3.4710147 -5.373006 -5.844975 1.3727144 -1.2147862 -2.5825949 0.13844132 2.3047101 1.9320244 1.1392384 -2.1131868 -1.968633
*dt_67 -1.8259473 -0.8686437 -7.0812273 1.7995563 -2.5576398 -3.8691776 -5.2751727 -0.12215261 -3.598422 -2.5590417 4.569131 10.848702 1.7901982 2.2510254 1.6371866 -3.6745412 2.6267288 2.9136105 -4.7202487 -6.6636014 -6.4475136 4.878923 -1.2772571 6.115589 -1.1172017 2.141369 4.1202044 -1.547 2.6746752 -1.4902297 5.2586417 -2.7366643 -1.8041811 -2.8539958 -0.98545915 9.307786 3.0802867 -0.10239466 -0.48464867 -3.718313 -1.7046965 3.714417 0.8540528 3.7018757 1.0342605 0.13852519 1.8595628 -1.0676773 6.4772334 0.11468933
*dt_68 6.1122923 7.5630817 2.4504583 1.1355498 4.3409276 -5.0401845 6.413133 2.1224132 -4.770668 -4.592288 1.8827986 7.8093576 -4.9801993 -0.28359613 -2.2617571 -4.5860133 1.1101993 -4.44814 -0.34142095 -1.8747791 3.1869926 0.9403941 -3.5025742 10.710947 7.3852 -3.6053662 4.9756484 -3.7816076 0.9429379 0.86881185 6.0550613 -7.54692 -0.1242645 -13.067824 -1.2695596 5.3370953 0.29041123 -2.4630592 5.854883 3.1563256 6.178438 8.718754 3.6184433 -3.4907231 3.9820654 -8.242869 -2.3769226 -7.8029814 -1.4568611 9.36453
*dt_69 0.032012198 4.7520347 1.6533813 3.940493 0.95854783 -0.5325228 2.6136322 10.30215 -4.005424 -0.044112954 1.17655 -1.0159663 5.8511043 0.29126942 -2.2715702 -3.7576685 3.0125973 1.6045412 -5.120428 -1.5178591 -0.2944257 -3.7153363 -0.9301512 4.9299846 2.5790381 2.85111 1.9722127 -5.4066153 3.6345232 0.56593496 1.5413395 -7.8969684 -2.841442 -2.4237885 -0.4565471 7.188292 2.1560977 0.2198856 0.69164616 -0.4022655 -5.720517 1.8673655 5.9120955 2.0097718 0.63508147 -1.9968694 1.585847 -2.6837661 2.929283 5.3554735
*dt_70 -1.6363174 4.189987 -4.4738746 0.04063308 -4.537306 -3.246515 1.0419582 3.4934666 -1.1956818 6.616547 4.8567524 4.579351 2.5355499 -1.4820858 1.5782921 -3.5959437 -4.214435 -4.1225247 -0.4094104 -0.24771953 -3.7664182 4.110738 -2.2435846 7.9096184 3.0396256 0.9450286 4.429495 -7.3958583 -1.4871936 -2.6547298 -2.670241 -8.332096 -2.1008885 -2.4036422 -3.2271042 7.4840565 1.8996458 3.8635526 0.33064067 -2.8149183 -11.838977 4.5101333 0.26151428 0.71296734 -4.3855524 0.88697714 -0.49986872 1.3208108 7.641637 5.8961577
*dt_71 5.018083 2.4435358 -1.2230563 2.1523805 1.8824644 -2.295938 3.7838519 3.6359274 -2.6424177 6.3552346 3.4423966 5.3391023 2.26565 2.1680117 6.5825377 -4.0132103 -2.3910928 0.17922162 -5.5420995 -5.323269 -2.10972 -0.32396483 3.512306 1.6417795 3.96007 -1.484647 0.1888466 -1.4011538 0.033497863 -5.7714424 5.074648 0.80495703 -2.7627113 1.5371757 -8.078471 2.7403464 1.0308304 -0.051679507 -0.6918843 0.26659417 0.25575346 -0.57787645 -0.07875256 -0.030540887 2.8478975 1.6523194 0.33704627 -2.3263853 0.92902076 -0.07781491
*dt_72 1.86232 -1.1546572 0.9915468 1.2145946 -2.5738382 1.1371725 -2.608786 3.639269 -5.47431 -2.7928822 6.7188883 10.766022 4.059326 0.47080737 4.061448 -5.6858053 -1.4727436 4.97335 -1.8986357 -0.14330457 -2.164772 0.37406573 -5.509434 6.694405 3.776315 0.68484104 1.7160152 -2.5858622 -4.512882 -5.0855002 -1.1848073 1.7128205 -0.6843415 1.5666875 -4.6746616 5.4892006 -3.6642468 -3.5865796 1.2010096 1.9921789 -8.911405 -2.529308 2.0515702 2.6430023 -2.0519047 3.2429183 1.009674 0.8359051 7.589912 2.3486483
*dt_73 -5.383419 3.3303628 2.6768482 -5.9512353 3.2783985 -0.054987088 -5.6430306 -1.4639813 -6.620213 -0.7630265 -4.2012973 3.3569872 4.244584 -1.8985419 -0.5314355 -1.1570275 -1.5909076 -3.1759057 -3.373001 4.700024 -2.3504636 3.6985776 -0.69333 8.055692 -2.2062664 0.75183773 0.17990191 -4.5254292 -3.1694615 -0.23924257 -0.7340029 -0.7266418 -7.33374 3.9026258 -0.7572743 2.5601056 -3.2230847 -1.6773088 3.1982863 -5.1513624 1.3203169 4.481539 0.88969576 -0.5114025 -2.0115106 2.1617324 1.8038448 -2.711422 -0.32880035 2.1732004
*dt_74 -3.545589 4.7550583 -2.2813668 -1.0840198 -2.235021 -0.76321304 -1.8995368 2.0159223 -4.6425257 -0.10469437 8.655575 6.3691964 9.388104 1.1985052 5.5372515 -0.9823153 2.291585 2.0488117 -4.5896773 -1.4933795 -2.540773 4.147808 -1.1233851 4.2658315 2.8647263 1.4794964 0.904052 -0.20785837 1.7021432 -1.6840446 5.7519317 -6.2055874 2.5220609 0.9739155 -3.9569306 2.7001662 0.21719716 -3.4967248 1.4291672 -1.0970417 -2.3411403 -3.9133387 0.7801288 4.1389065 -2.0059776 -4.085627 8.325805 -0.21162856 3.6151454 0.32727876
*dt_75 -0.8951005 5.5439525 -2.8089418 0.47975165 -2.274624 -0.94428056 -0.8896558 4.1979456 -6.207747 3.0448248 1.3061712 4.4237447 6.0608788 -0.3612552 2.6616905 -1.1960301 1.4486732 -3.0794349 -5.46892 -1.635338 -3.3409014 0.7891972 -3.6218328 9.156158 -1.1001296 -0.83311313 -1.1940314 -2.5879536 1.679061 -0.71645063 3.87175 -6.8724384 -1.1502362 2.05618 -3.8765988 1.9724559 0.7714624 -0.28747657 6.5359488 -4.27222 -1.128253 2.5362072 0.3855181 1.6964674 -0.38482773 1.7586071 4.2745605 4.8044124 6.441257 2.4841561
*dt_76 -0.54187304 0.38023788 5.002184 -3.2539878 4.2290344 5.271802 1.983832 -5.3146715 -12.24378 -4.427031 -3.2343302 8.338067 3.8643699 1.4389822 1.2451547 -6.4713364 -5.8026695 -0.1394713 -4.034605 3.7622335 2.2606528 1.5028434 6.2299104 2.1925733 2.7887907 -0.14602615 -1.4328432 -0.064643525 -1.4689497 -5.764764 6.96426 1.8803773 -9.099892 -1.2168282 -7.443563 -1.6318343 -4.8661537 -0.41205868 4.4393096 -3.2580748 4.214894 -2.2343283 2.7748315 5.878483 7.3408127 -1.585799 -2.87136 1.6523867 -4.846533 -1.8379592
*dt_77 -4.6005893 0.3577222 -1.8040217 -2.5762582 -4.7405953 2.9429276 -3.831379 -0.8946157 -12.273246 2.899527 1.0333259 2.0422728 0.17037863 3.3942163 0.4631732 -6.836914 -2.4117882 -1.9831039 -6.0786443 0.5943614 -5.886943 1.7679113 3.3712158 -5.568311 -0.040095307 -2.774837 -3.5504827 -1.4853885 -2.008325 0.717906 10.11526 2.8624694 -5.0434594 5.227555 -2.1813598 0.41030562 -8.354323 -3.157125 3.2722251 -3.817476 3.5799727 1.2824643 4.638346 -4.791313 3.804215 1.4611201 0.95924765 -6.5027294 1.516744 2.0213535
*dt_78 -3.759775 1.43898 -0.3342844 -2.7106383 0.06953782 4.177748 -5.1175876 -0.23832065 -9.401419 3.6867528 -0.95303607 1.8945001 1.7631354 2.8633115 -0.6873436 -5.1546597 -3.1495993 -3.8564842 -3.618908 0.94427615 -5.561316 3.5584936 0.7975831 -0.16578953 -0.38474122 -0.38250634 1.3252299 -9.136736 -2.7811399 -2.129455 10.298667 -0.07041152 -3.5620747 4.640999 -5.2356634 0.6442166 -5.8524165 2.7024124 2.044024 -0.37232757 4.853482 4.9838643 -1.1811881 -2.396134 5.411804 -0.04905523 2.1557505 -6.1761246 1.5760372 -2.2076821
*dt_79 0.28080377 -0.77727044 -0.5634121 -1.5154529 -2.5296009 0.85946083 -5.6547546 -1.4872247 -7.0539055 2.2841527 0.47022763 3.5681944 4.8977485 2.4574623 -2.7187777 -6.228771 -4.4517293 -1.4147276 -8.547003 -0.7291618 -5.7198424 6.9123855 6.984998 -1.0967691 -0.7456682 4.4711246 0.36089194 -3.2773998 -1.0420545 -0.4321769 12.873306 1.1557736 -4.728014 5.0948453 -5.3432064 2.2398145 -6.3003793 1.9820421 -0.28111792 1.1919627 6.168608 1.9120382 4.0954027 0.57943183 2.578679 -2.5133903 -2.0213327 -3.4264154 1.355321 -3.4775815
*dt_80 -4.577084 -3.526859 -2.4634771 -1.2742991 -6.744606 -1.3604385 2.9318745 3.550223 -11.0396595 4.474011 9.044579 -2.2306752 -1.5014156 3.4983718 1.8234338 -9.858367 7.9037085 2.4299772 -2.355751 -1.9290236 -3.3731356 1.9710251 0.38040328 -7.2809377 2.0999777 -3.3919747 -0.015503321 1.7925923 -4.8476124 1.8760796 8.57822 5.2280807 -1.6761317 -6.9657707 -9.354581 3.3816388 -9.440846 -2.1973119 -1.5220367 -0.7872548 -0.066673875 4.9638686 11.091155 -10.161562 0.3427713 1.9702367 0.21170169 -9.898463 1.5055549 3.1986873
*dt_81 0.38148764 -1.9739532 -0.4141659 2.5262215 3.036433 0.999555 2.2946632 6.634176 -4.4515004 0.69571245 4.0849137 3.6490765 6.1850424 -4.0931354 9.06382 -3.8801048 0.4634163 4.7954392 -0.20962606 -5.0408425 -0.1269425 0.8821419 1.6460178 6.2838945 2.1534028 -0.42046297 -1.0755452 2.3623707 -1.355115 1.6043915 3.0276482 -2.980177 -3.0746925 1.695681 -5.198768 7.708741 -2.1871002 -2.5317113 1.3764093 -4.9695754 -8.879163 -1.1076497 4.2783136 0.016902193 -0.38235766 2.279795 0.22036234 1.8063557 5.25445 2.3450634
*dt_82 0.00723973 -6.8214145 5.022375 1.5520272 7.524581 5.2553453 -1.2029161 -0.2065424 -10.2686825 -1.2273148 -0.93628764 6.4202347 -4.440223 -3.6964676 3.5386682 -1.2924396 1.9751859 0.4841778 -4.163151 -1.6461779 -2.2469652 -6.7321057 3.1757965 3.5659056 9.193174 -5.440854 -0.74857175 2.6044118 -2.768719 -2.46579 2.4345682 2.7821343 -3.9518661 -3.683527 -11.205965 4.796257 -4.569369 0.14560305 -0.32046756 4.586201 -4.5843673 -1.6201952 8.01709 -3.6988325 4.4588194 7.4378114 -5.459143 -3.3914063 0.5727316 -5.3499336
*dt_83 -0.28988338 2.565426 4.0955424 2.3357413 6.308668 8.293778 1.8351752 -15.064996 -10.343839 2.8708909 13.600162 18.513746 -1.4499646 1.4757737 -1.3758615 -22.009254 -4.0971856 -10.82145 -2.7023807 0.013503675 -6.347472 -7.811481 -0.58427185 12.253941 4.3785887 -3.4777963 15.948538 -7.2194653 -0.99960315 -10.321103 10.270665 -17.326353 -0.3113286 1.8340976 -12.019887 4.357367 -12.293897 1.0035962 8.2394705 -19.526497 3.94877 3.468162 26.909008 -3.7332733 1.2570192 -3.7529254 -4.442213 -0.575414 -0.712141 7.1619945
*dt_84 2.6154315 3.543923 0.2912471 1.5979505 4.144188 0.45715773 -1.0749444 6.3830442 -4.710414 -0.055055674 3.0485787 5.0150194 0.75246286 -0.5620709 3.1167958 -5.536638 -0.06640345 5.5850353 -0.63520974 -3.3796334 -2.9220817 -1.5446782 -0.3521848 5.3446984 4.217415 1.9808464 -3.1727493 -3.172814 -0.76739144 1.3872478 3.6693802 0.7374965 -2.3206346 2.6613495 -4.1824975 7.1384816 -3.7696197 -2.69051 3.9722574 2.6197429 -4.612243 -2.3998947 4.220351 -2.5585997 0.51419115 5.5987706 0.11767694 -1.070639 3.2950222 4.89314
*dt_85 -6.1712694 4.8066525 -3.7190998 2.6411617 -2.1481245 6.480347 0.8327912 -0.19887759 -8.134308 1.3156278 2.6311057 -1.0149174 -5.2105336 -0.88707674 -0.86977935 0.14237362 0.75025594 -0.79403573 -3.6214702 -0.38594025 -2.3655212 -2.5285897 1.7341719 -0.16688223 -3.5032718 -2.015038 4.418863 -4.6817355 1.2618936 -2.0057757 4.469644 0.666711 -1.5455749 0.050377134 -2.0824735 4.176367 -4.579988 -2.9010267 5.335364 0.22418267 -4.4166484 3.5757985 -0.44871396 -4.2312016 2.3494794 1.356476 0.93677753 -1.9832649 2.0397825 -0.45492607
*dt_86 -1.3480728 3.7356806 -0.24755809 -2.982307 -7.064839 0.10078364 2.0942714 1.770878 -3.1297393 7.174988 -0.085912645 -0.11518458 1.7744575 -4.756858 -9.098474 -3.299636 -4.3397913 -4.048075 -5.668065 2.368463 -2.3011668 4.618621 -0.3830807 2.2117546 0.43855458 -0.9491638 10.298246 -6.1031265 -1.3030843 3.1865983 1.552431 -3.563814 -4.91528 -1.2496473 -2.0470233 4.3527203 -1.2117198 4.258759 1.6890495 -2.8063369 -5.476172 5.754243 1.4548149 -2.1294339 -1.3544253 -2.8041623 -0.63761914 -1.736689 4.866405 3.7535808
*dt_87 -3.785316 4.2053742 4.1694493 -0.13624552 2.1615353 4.1903863 -4.819422 3.9777331 -4.7849746 0.7940389 -4.490092 2.5582397 2.4594827 0.8040547 7.3383617 -1.3093268 3.4533424 0.43687654 -5.861191 -3.3265786 -6.8274703 1.1550359 1.9405457 5.4164114 -2.7007132 0.4004281 1.1146424 -6.131783 2.4963605 -2.559472 2.3528724 -0.6901066 -3.0578108 3.1216774 -5.4053206 4.5913963 -0.18650192 -0.93581915 0.23075218 2.4199197 0.69362855 4.2311554 4.0541925 -0.61769676 1.6484808 3.1609411 1.4426488 -1.6674501 5.085717 0.83498317
*dt_88 3.448116 -0.5125519 3.178684 -0.030299377 6.894033 1.1248448 1.9835575 3.6921065 -6.376142 5.024066 -3.2728271 1.2721633 4.0004897 1.0861723 1.0680572 -10.250537 -2.9379752 1.3693727 -2.900334 -3.648176 -0.41573572 -0.9690859 4.594806 -1.6240711 3.4315453 -5.702082 1.8081229 -0.67485505 -0.7241805 0.09659904 6.4691415 4.5544195 -8.113802 3.1257422 -2.4269643 3.4585173 -1.9116117 -0.22988732 0.938185 -3.9107265 2.4806464 -0.669179 1.580017 -0.768338 5.5371737 4.2383513 3.250787 -2.5936625 -3.3137445 1.0422621
*dt_89 -3.6452525 7.63613 -7.1536107 1.38327 3.7286208 -0.8794002 3.4335372 -1.2108583 -2.7548358 4.704443 1.7508482 -3.5025227 -2.207797 -2.7437356 -5.3144684 -0.4763213 0.3192893 -10.195082 -8.817571 1.4338713 2.3579814 0.45900676 4.39308 1.8417509 1.2874895 1.336754 5.558867 -6.5893593 -0.009002571 5.4446483 4.816078 -5.331142 1.7292612 -6.2107034 -1.5360765 5.63552 -2.8119621 1.2579591 4.5803213 -6.6365404 -4.056622 6.159918 0.57759327 -4.6699905 1.5072976 -0.95535415 -0.6827197 -2.8934035 -1.3149617 -1.388438
*dt_90 -0.28944188 1.373542 4.129851 1.455721 0.56170344 2.144445 -0.9809978 2.9848561 -4.6639557 -1.1148863 2.7372582 1.4297501 -0.5735872 -2.97581 0.013058944 -0.25649166 -2.680689 -0.6627979 0.634265 -0.8498297 -5.2681327 -1.9443978 -0.1878141 -2.5131228 4.9682994 -2.5771897 1.865881 -6.2110653 -3.3679194 -0.37801033 -2.0237744 5.174854 -1.4566404 2.5158982 -4.156361 7.1243763 -5.0820546 2.8025746 -0.13621391 0.6148563 -6.8366466 2.0644376 7.7390733 -1.6966467 7.0685687 7.0648026 1.1622695 -5.6189494 5.6024656 0.9399099
*dt_91 -0.7241888 3.2298799 1.6202519 0.12799591 7.53532 -1.2785577 7.0943065 -1.3512573 -2.173814 5.547632 -0.44581854 -0.39959157 1.8210894 2.340784 4.729048 -3.6215057 1.0051281 -5.417987 -8.364886 -2.4364161 0.09601832 -6.433512 6.574705 -2.4166694 5.741367 -2.502266 -1.7624629 -3.7254877 1.4067978 -0.21690449 -1.8218565 5.504467 -2.4139295 3.3651946 -2.972577 6.7181525 -2.0926294 0.5839647 2.4686658 -3.524722 -1.4624367 3.480962 4.2184744 -4.3080626 -0.06614122 2.3835554 3.5604618 -1.8548361 -4.6053343 1.3590891
*dt_92 -5.333321 1.7525244 4.050109 0.19836241 -0.8319222 2.9502182 0.13219103 -0.14350176 -8.448909 -0.37926516 3.1659844 0.42721355 1.775683 -2.7618022 -0.43732506 -3.0052214 1.3115286 -2.3016317 -1.3124064 -0.47231326 -1.8327255 0.67785156 1.1507941 -2.4523327 1.1884501 -7.2828894 -0.3163074 2.4711182 3.9865162 -4.855881 -0.1381856 2.191105 -2.7771215 -3.5662117 -2.9141264 3.1520398 -1.835121 -3.8492827 5.095693 1.7150071 -3.3388557 -1.7785529 4.3701053 -2.0870812 2.6445007 0.8720938 0.1884641 -8.043994 -3.1191847 -1.0273157
*dt_93 0.46426907 9.240985 6.2004547 4.366055 5.5416007 -3.7247422 8.355475 -0.6412228 -0.16079625 -0.096865945 2.4810655 -0.2976376 2.6642578 1.5338811 -0.98363227 -6.213632 -6.4580307 -12.454875 -5.221906 -3.8629758 -0.51255316 4.9950647 -2.304666 4.0076547 9.54159 -6.995503 5.0455966 2.0578024 -6.524136 -8.382984 0.6345701 0.79667294 3.717846 -5.7496066 -10.451711 -3.2206643 -5.861945 -0.50478953 1.9967904 5.442717 3.4656687 -1.8497748 3.597728 -3.7955015 6.3991876 0.30410856 -2.691383 0.2402212 0.029473 1.6784292
*dt_94 -0.9281708 2.7624671 0.93349165 -2.5109904 -1.3247637 2.020646 -3.4765036 3.69933 -5.3579473 0.85656494 -3.2801702 3.1355903 4.9136868 -1.8612316 -0.33561838 -5.974227 -4.3525558 0.7906622 -5.222096 1.8439386 -1.6909529 1.0980425 0.71412593 -0.17311688 2.4775472 -0.89117885 1.540108 -0.45414996 0.38545582 -2.7479174 2.6646798 -1.5675428 -3.5680926 1.7784964 3.1833055 5.2974524 -2.7461877 0.9892052 1.945768 -2.3495214 -4.4600315 5.6780148 3.2347484 0.28186747 3.5037994 0.07983196 2.7976124 -3.7493486 3.483881 6.429135
*dt_95 0.29331788 2.841234 2.7220538 0.07421409 2.2813568 3.77272 -1.0144389 0.34837008 -5.0780926 1.8625937 -0.9200829 -1.4976481 0.3448849 -3.377134 3.8509552 4.97716 -4.002061 0.24013633 -2.1886668 0.10772189 -1.6036744 -1.6202991 5.4942694 3.47556 2.2618537 -3.1919384 2.6022413 -7.220913 1.733356 2.416661 -0.15092829 0.88744223 -4.84633 2.0190387 -4.925728 8.039246 -2.507282 3.8207672 1.2304409 -1.1403236 -4.36689 6.883464 4.146988 -2.541572 3.9877698 -0.36652267 -2.236673 -7.3335752 0.33427805 1.1354792
*dt_96 5.1134615 2.4362938 1.4199053 3.0451589 2.6972132 -3.2795877 0.7713428 3.6945279 0.103409275 -2.1248484 3.241775 7.9640765 1.3637733 -1.4651577 -0.15917626 -13.024332 0.8649598 -5.072551 -5.0645914 -2.2614434 1.8765005 1.8877604 -0.73000544 1.5929073 10.445491 -3.9919457 3.4667 3.481522 -1.8613513 -17.013792 -1.7374945 0.19314449 1.3198736 -11.438717 -2.2444782 4.7051325 -2.0700853 1.3631413 5.927446 5.580502 -0.30997053 0.7439978 5.6196804 -0.15556836 -0.80869657 -2.936862 0.6099887 -1.6075915 3.9376538 10.04527
*dt_97 0.7973672 0.34263116 -2.557673 -1.7012548 -2.0938706 1.4522022 -7.1324153 -5.7882485 -6.2726364 -0.9938839 8.037011 7.546953 -0.0655546 -0.35396972 -1.9575946 -2.8943717 -8.370698 0.080494426 -3.8633115 0.77347654 -4.8149896 2.571607 5.2141604 -4.54815 2.0091536 5.1794376 -2.3969295 -3.9905524 -2.4308977 -1.5964725 6.5302825 1.3407602 -3.9483206 1.7709584 -1.8761461 9.857884 -6.94323 3.1170819 0.64344186 -3.1773708 -5.283106 0.38982645 3.0581982 0.3992721 5.16333 2.1496377 -1.2410682 -5.503488 0.19098267 -0.8852392
*dt_98 -0.49062827 0.28434852 1.3634568 4.9023767 3.8016636 -1.306173 -0.3527707 4.3948736 -3.5784702 0.6720786 0.29295993 4.100119 6.6013565 -0.44285026 7.2598834 -4.6112514 -1.7981213 2.0929852 -3.0624719 -2.0464451 -0.39229336 1.6779265 2.8867102 8.114104 -0.23289914 0.8426822 -1.7070907 -2.1076283 -0.40773758 -5.308198 2.7119148 -0.572984 -5.6921024 2.0618706 -5.9632573 6.6294374 -0.9655533 -1.4987932 1.3939245 -2.248641 -6.070199 2.0980444 -0.43716145 1.0162411 -2.3896418 4.475084 1.8598549 -0.31647104 1.5722244 -0.5892107
*dt_99 1.8405868 0.7246559 1.3681052 -2.20373 -4.5314593 5.754257 -1.0067335 -1.0785888 -7.9623413 6.29612 0.44457537 0.86784893 5.24877 1.8474785 -1.1375636 -5.077179 -7.2299128 -1.417179 -10.691197 -1.9811798 -3.8924966 3.905398 3.758282 -0.71865386 3.9443138 0.07143663 2.4686244 -2.896701 -1.05452 -2.0699737 9.760294 2.5738292 -5.7596097 4.2926903 -8.022011 -2.026853 -3.6732633 0.8753025 -1.9610032 -1.0850837 4.0326667 0.9918317 1.8596759 0.32522675 2.5032935 0.094056554 -3.052743 -4.3662715 -0.7503356 -4.3061423
*dt_100 -3.0368674 1.0980425 3.800155 0.2892049 3.4116182 3.58977 2.1712277 4.075339 -10.744665 0.41947353 -3.9186447 -1.216877 2.6028972 -1.1129644 1.7761933 -8.35554 -2.523798 -2.2208946 -5.1131225 0.08541598 2.3888621 -0.90772325 3.3713517 -4.8278594 3.6320517 -1.7034136 4.0951347 -3.744901 2.7052877 -1.9930001 6.217371 0.1285951 -6.799083 2.4995959 -4.5256853 1.2795663 -0.8974674 -2.1034636 1.7082281 -1.9021327 2.103529 -0.13833144 0.11686938 -0.023137748 5.9179835 -2.4005547 5.8749695 -3.2873976 -8.008381 -0.39660206
*dt_101 0.6658109 0.15876149 8.463872 4.1918464 2.9486542 1.4042878 6.34027 -7.871772 -10.426085 0.28232667 1.4602095 5.246543 -1.5675294 -3.7222764 0.8881564 -0.87206817 -8.081847 -3.880029 -4.7265477 -0.13807158 -0.6418145 1.1704793 5.725317 0.5382748 1.7080455 -2.8463085 1.1116724 -3.319441 1.2617149 -1.8212981 4.5519905 6.242395 -7.969515 -1.4495126 -10.526691 -0.8449351 -4.181668 -0.33161756 5.7279344 -5.089934 2.5000954 -0.5043279 2.5607965 -0.055993024 9.5763445 -2.6654499 -2.6482825 -2.907463 -5.6393147 -1.4412845
*dt_102 -0.46353647 6.843632 4.8401127 -1.5691236 6.225781 0.046181686 5.0384765 -3.0273528 1.0774707 -0.2875336 5.974287 0.61918455 -0.10195347 2.8514433 -1.7677275 -2.5955477 -2.0417845 -5.7737613 -1.1623362 -3.1253388 -4.944523 -5.4177833 4.5101094 1.1614425 5.44649 -0.85967773 2.8267567 -0.46052706 -5.2728333 -0.60584295 -1.2513273 5.198977 0.3381765 0.8764987 -7.20078 4.9080195 -6.6284103 -3.0586352 -0.393002 -6.903668 6.322114 0.58916974 3.0955477 1.207758 5.0085335 -4.572834 4.314645 4.53748 -3.845529 0.6495408
*dt_103 -3.1571422 8.73943 1.7558924 -1.2099211 -5.561365 2.832637 2.4515707 1.6900557 -3.6359665 4.593366 -1.9999409 2.8575783 3.5693262 -2.5362144 -2.5106888 -8.015757 -2.12632 -1.6011127 -4.915759 -0.94000363 -3.404518 2.3419485 -1.354194 -3.1690729 0.18736479 -0.19214416 10.262132 -4.0960016 1.1943752 -1.1076834 0.28972697 -0.10290757 -4.9101067 0.09661528 3.7909815 1.1012187 -4.0345893 -4.68583 3.2897704 -1.2075053 -1.3258688 3.6832898 2.6110144 0.20233989 3.8476608 -1.6904352 5.201872 -0.9543406 5.7994285 4.3737717
*dt_104 -1.2103287 2.0767875 -0.90580326 -0.49405274 -5.5673485 7.617847 2.6019623 -0.41462046 -8.253204 3.1249158 6.2859254 5.7998533 -1.4237708 -1.2378633 1.8469293 -9.587286 1.2739501 3.1670814 -3.1621857 -0.5994724 -1.3916123 -1.4983716 -7.945892 2.1446939 4.2401104 3.5496588 -0.46709302 2.861067 5.678713 -3.663019 1.1563996 -0.0975424 0.459324 -11.617751 -3.5214932 2.6120584 -1.1659185 -3.8026836 2.5868843 1.6699773 -6.0562778 1.3579744 5.483067 -3.8592954 0.3352702 2.2795491 -6.772104 -0.8325399 7.209015 0.13019796
*dt_105 1.7093453 1.2564324 3.1811156 -0.28446898 6.4101195 3.5407612 -0.8145947 -0.19745018 -9.886272 -2.4582362 1.6901091 13.148728 3.8868604 -1.0522908 3.760509 -3.5790472 0.87683827 3.4931118 -4.94718 -0.26021957 4.881213 1.4901097 1.7346565 8.623881 -0.4307296 -0.010497021 -4.6452265 0.7909495 1.0356328 -6.3139977 4.5735817 -0.6070257 -4.6428604 -0.7912586 -6.75058 4.3229213 -1.778232 -2.2208488 3.9923005 1.1685218 -1.6299804 -0.5047338 -1.750737 2.9842741 1.3638204 0.4983575 0.7101894 1.8810511 -0.6311988 1.1517323
*dt_106 0.21191642 -0.3392987 5.2815747 -2.3424613 2.740009 4.3122234 0.87885153 -5.1655574 -11.652551 -3.0758047 -0.4605359 6.0434427 -1.192232 2.8764322 -1.9156616 -4.760521 -5.1409645 -0.2161936 -4.915002 0.89538795 0.8067702 2.1617093 7.906803 1.0619444 2.0179758 0.9575005 -2.58082 -0.8393038 1.1242296 -4.350549 6.260914 3.8865905 -8.161103 -0.0317091 -4.340188 0.6265869 -2.8565915 1.5394397 2.758308 -4.2322454 3.2319853 0.044702124 2.9712906 3.202715 5.778749 0.67711633 -1.9095013 -0.29615462 -4.4024463 -1.1979778
*dt_107 1.0066397 6.807993 1.4474436 5.4864254 -2.2148037 0.2570128 1.7279308 -0.48742747 -2.8424897 5.224764 6.452421 -2.4916086 3.831297 -1.2715676 -7.5917516 0.7086021 -4.9399333 -9.744806 -0.7509489 1.5836334 -3.2906082 -2.7847872 1.6371981 1.8471195 4.7279596 -0.08798704 2.595824 -4.795669 1.5227294 -3.670158 1.499629 -0.5640028 2.55071 -2.303981 -8.573523 1.7717125 -4.9423213 2.139542 4.1022515 3.461751 -3.0255902 0.6259098 2.6923256 1.0070134 1.7113206 1.1052221 0.42576537 2.619881 4.8136954 -1.6795949
*dt_108 0.25479463 1.6057397 5.183755 2.8626003 -1.5228939 9.3658695 -4.977631 0.036225967 -7.4888206 1.2282827 4.735237 0.36395502 -1.6937394 -3.583256 -3.083266 5.3999276 -2.4365883 -2.4687793 -5.7531533 3.2269862 -4.0268207 -4.0840583 3.3462842 1.6234274 1.6610874 0.90726006 4.104497 -4.589878 -0.8819361 -1.5427145 -3.0130668 2.4169753 -1.0544205 -4.37524 -0.8429524 9.71778 -2.16012 2.898226 2.6875498 -3.5707355 -13.308852 0.12998691 6.2273483 -0.76570046 3.796652 0.50524366 -4.4803963 -2.6655743 1.9420712 -0.11124504
*dt_109 -1.4578933 6.388769 1.5203226 1.5945021 -8.044096 -2.2159336 2.2895994 2.4955907 -7.7883725 4.896269 -4.011399 3.2815983 5.554663 -1.8698066 -2.8948152 -5.153541 -2.0430877 -0.31638625 -6.8519807 0.35412678 -4.0452266 1.1940608 -3.4658709 -1.591108 1.5566925 -3.7612526 11.360889 -4.1440682 -1.3985671 -1.9555514 1.555304 2.9828868 -0.30032495 1.6659759 2.7093227 1.1164976 -2.1401951 0.41988617 1.4121674 -3.781039 -0.68661106 5.359872 5.7250185 1.1332982 5.0436893 3.3840902 3.9243205 0.63719106 5.5755634 -0.7957484
*dt_110 -3.870972 4.425132 -8.170016 -0.98441637 -5.683627 -5.442466 4.209636 1.7566724 -2.337383 6.6744637 3.1240265 0.71623254 3.3167243 -2.1246252 -5.3696814 -3.5646193 -3.500898 -5.463077 -0.74469924 -0.64771265 -3.5448906 1.6750768 -1.1677294 3.6794224 7.140408 -2.186086 10.069805 -5.245672 -2.6837456 4.655995 1.8706305 -4.9001255 -0.10628141 -2.548475 -1.922497 5.236063 -0.6961609 3.7566164 -2.2900388 -2.3945563 -7.711687 7.193025 2.9699733 -1.7283835 -0.41059825 0.5367043 -0.55148053 2.4913194 3.4668515 -0.13828945
*dt_111 -10.44857 -3.6175742 -2.5202355 6.069818 6.021447 2.1665022 6.9092464 -7.37443 -1.8654329 0.92207235 3.371373 1.8074939 -9.381832 -0.5331436 0.47896257 -9.84327 1.7883363 -4.4399605 -12.613204 -0.9644835 0.11628653 -8.2452545 1.5928292 -3.3212473 -3.2690778 4.0170727 4.2971396 -3.800112 -3.6978498 -4.4869437 4.829843 -2.8547258 3.061368 -9.580688 -15.546637 8.627914 -10.497582 -5.132072 2.6250398 -8.295837 -0.7563523 1.0611552 2.4462426 -7.620351 -7.563744 -1.3040255 -10.79241 -6.211248 1.831581 3.0024793
*dt_112 -5.242298 1.1657175 8.773463 -12.593701 4.5003157 3.7944784 -1.9907992 1.8256849 -9.448661 0.043813787 8.932606 1.7782184 -1.6195265 -6.78457 -9.1609745 2.2792299 9.506864 0.117678925 2.0323055 -2.0372632 -7.319637 -6.7015023 -3.6758184 2.747003 9.645857 -3.1087825 7.946318 -0.64485353 2.9644039 3.7280235 1.4246196 -7.9658384 2.4781435 2.112964 1.5496277 7.661964 -4.7714515 -7.806775 -2.9526103 -2.3723512 5.987442 3.1685216 10.586197 -1.0331192 -3.4583461 -4.197854 -1.5256692 -5.5649076 -5.2753525 12.042156
*dt_113 -2.489955 6.557263 -0.44096813 -1.2265874 -5.8140397 -1.5054568 -0.8699935 2.2030134 -4.1794686 3.4486294 -5.7841387 2.3008375 5.1795664 1.2047931 -1.5106126 -5.72055 -0.75980544 -3.6313374 -8.285243 0.7888199 -5.9211745 1.9575846 0.84949833 -0.10477478 -0.2189615 -3.3473783 8.18431 -4.8036056 -4.946173 1.2638423 0.37511465 0.8018961 -0.40620318 1.2802353 1.476441 2.3739576 -2.2697158 3.2014925 3.1549878 0.20315547 -0.87346685 2.819919 4.8280206 0.39798892 1.8986863 0.2328655 -0.5193511 -1.6459879 6.754739 3.1328053
*dt_114 1.2664082 2.1737392 1.0105349 2.8284748 -0.4185802 1.7281111 0.40044376 2.4715674 2.5977628 5.1402216 0.9280283 2.8729308 1.6957014 0.9854372 1.3322713 -3.384624 -1.4842564 2.1828895 -8.304609 -3.8470862 -4.2438354 0.4176194 2.9509926 3.711452 3.1321793 4.4437847 6.11203 -6.5056076 2.945593 -2.9332733 -0.8402349 -0.48558715 0.20172577 1.0275409 -3.4962118 10.694612 2.9421575 1.2467979 -0.68344116 -3.8929968 -6.9668655 2.5089254 -0.9612256 0.93635666 2.221518 -3.9898868 1.9943959 -0.55665684 3.472638 4.7435737
*dt_115 -2.0730271 3.9706128 3.7950392 1.0243831 4.0134697 -0.60094625 6.680287 -1.6323266 -6.32122 -3.538264 -1.9074297 0.9148504 5.921202 3.5478234 3.0214539 -7.2368846 -3.4570003 -1.0131061 -1.7683141 -1.1846017 -0.6411011 -0.5863593 4.189646 -4.495728 5.2484226 1.5562781 -1.8348212 -5.414273 1.0916767 -2.803702 7.3851275 7.403948 -8.26565 1.60181 -3.0903413 2.4587786 -5.4269753 -0.11518513 3.3683321 -6.3487163 0.69652414 3.4335542 -0.27928415 2.8845718 5.048417 2.521083 3.0305235 1.1306053 -2.7280645 -2.4189634
*dt_116 -4.905357 3.9686575 -2.9998348 -2.1204553 4.0245585 -0.010750506 -0.6737265 0.3407768 -5.3850155 -2.7465258 -1.024033 -0.35724735 6.4468875 3.1407719 -4.997282 -5.097054 6.020092 -2.2337632 -5.4948206 -2.264563 -0.8677823 5.313414 0.21820101 0.058522437 1.52434 -0.81737864 3.1656396 -4.042412 -1.1699153 5.3962355 3.4517896 -1.2834935 -3.918792 -2.7638183 5.0829945 7.103091 -1.4469962 1.5684786 -0.19485731 -3.8925123 2.604288 7.9455576 6.47995 2.7022557 0.58595127 3.1210907 0.6977676 -2.7647698 1.3496345 -0.63280946
*dt_117 -6.819567 0.4781667 2.286265 -2.2617877 1.3881702 -1.0388136 4.219894 -1.1607409 -6.584363 -0.714666 1.9792597 -0.7632902 -1.2746664 -1.0777936 4.0064893 0.18123311 -1.1569302 -2.4914787 -1.9285598 -1.8947287 0.5354576 -1.4092858 1.531494 1.5263581 3.6056056 -2.2006164 -0.14834398 -3.1791024 2.3753583 2.7052846 3.2317157 0.47709686 -4.1485825 0.3984943 -4.0452127 5.4847417 -2.0714834 -1.8263673 5.162287 -9.664176 -4.0590262 4.196609 -1.4328784 -4.3931036 0.93357384 -0.022971444 0.5047463 -1.8071103 -6.8917027 -0.42828467
*dt_118 2.3485003 5.997766 8.573602 -2.0531907 0.26708904 0.39756137 -4.0864053 4.3973885 -9.55701 1.5644308 2.9031725 2.0098014 -0.88893694 0.26891845 -1.9058019 -1.1040236 -0.7260438 0.45851862 1.0372592 5.6172996 -0.8940606 -4.3679385 -2.249019 0.80330855 1.3531182 -0.56863797 -4.8434577 -3.195311 1.0056823 -1.619137 0.27772716 0.2541486 -2.3242192 -1.3966959 -0.99987096 6.1756234 0.2587932 0.12163165 2.1599324 -0.73923683 -0.05016358 0.47691497 4.8478847 -1.281257 2.378945 -1.3547043 1.3224311 -5.309816 -0.007013593 7.32561
*dt_119 2.910148 -0.28276068 4.261861 1.0390183 -1.9025759 1.2360922 -0.35152188 0.9066743 -6.2614894 2.8780007 1.5359168 6.691577 1.2633035 1.60989 0.67573917 -3.2862964 2.618277 5.4726634 -3.5753708 5.259718 0.602668 -3.3928156 -2.4586895 -2.0560098 5.666153 -1.0652405 1.9671209 -5.3880544 -1.3929031 -6.301496 0.12712482 2.826402 -0.9026336 -6.919936 -3.501211 6.5411496 -0.36796713 0.3354405 -1.9703797 2.09893 -7.99392 3.436597 5.4399767 -5.368395 0.7491308 3.0306888 -1.4154212 -6.2096 4.7952247 0.39882442
*dt_120 -2.01709 6.7322965 -0.2854432 -2.60482 -5.583945 1.0512756 1.6778573 0.9225479 0.7233671 1.4544479 6.9075613 3.0228987 -1.7406299 -0.1454297 -1.255266 -1.4007297 2.7590947 0.57422477 -4.321959 -1.4087391 -3.596223 3.3830614 -0.0855698 7.2696686 1.8478333 6.587259 7.269185 -2.7693 -1.6580701 -5.6132584 -0.14624369 -2.983855 1.157568 -5.87868 -3.5121818 7.8479714 0.14189506 -1.2688472 3.6958191 -1.1504496 -7.1704574 2.0402858 -0.43779185 -3.329689 -0.7679672 -6.1808305 0.640841 1.7095231 4.842161 4.81646
*dt_121 -1.8887318 0.8287141 -2.8011456 1.4785033 4.5217433 -1.4446262 -1.3227423 3.235119 -5.4115915 -6.499832 0.28367108 6.38498 4.797472 -1.3979937 2.0469453 -4.9310384 3.8418357 0.669125 -2.6039562 -5.695082 -1.631767 5.792115 -0.900627 2.2999544 1.8265076 -1.5262737 2.3823595 -2.7258697 2.4066863 -0.8087414 0.19533677 -6.235147 -3.8533263 -3.0490582 2.8799708 10.982349 3.929372 1.690947 2.399413 -4.7091203 -1.718423 4.0135875 4.5727005 5.3713865 3.3674498 1.0010394 1.0465461 -4.469964 5.9145365 1.8575989
*dt_122 2.6118813 0.71908075 5.7784486 -3.8139837 4.253358 0.056151304 -0.25198016 1.5638207 -4.01818 -0.74729115 2.4735699 -1.0022229 -8.152625 -1.0128896 -1.7069243 1.7647802 1.9361286 -7.9793277 0.9791639 -2.615633 -5.3162303 -6.5696526 0.40770328 5.725624 7.151499 -5.2595544 -0.0002700502 -0.6540224 -2.7114995 -1.7645348 -3.6590214 1.0528629 1.3419113 -0.24815509 -8.471575 3.05783 -3.760612 -4.318967 -1.5991148 -2.4985201 1.532682 3.410933 10.442618 -1.0946606 2.2176983 4.566045 2.8396013 -0.14642683 -3.0698934 4.5109234
*dt_123 2.0976048 1.8824302 -2.4774659 -2.3226337 -2.3795989 -1.1439879 -2.2924356 2.73315 -0.4457265 4.050356 2.743557 1.3950143 -2.3685522 -0.61768353 -1.7059227 -1.9907098 -1.4600304 -1.2249153 -3.3139672 -1.4597878 -3.1667583 1.3676177 -3.9966414 5.1884503 3.612487 3.2379282 6.552361 -1.4714934 -1.7100562 -0.06920558 1.0863589 -3.2343311 0.68375754 -3.4316928 -4.331561 4.3695464 -1.6540128 1.6976168 -2.3239176 -2.897098 -0.77026296 2.4037654 4.566993 -2.1010914 3.248933 -2.466319 -0.6768273 -0.678933 4.9939885 0.9503846
*dt_124 -4.0260468 0.7577064 -1.5908084 0.5539984 3.3742568 0.8944438 4.201367 -4.6581693 -3.025235 4.660861 3.3561234 -1.1623745 -2.867503 4.299099 3.21509 2.330228 3.6335926 -7.9449296 0.42584163 -4.887583 -6.0066223 -2.2725987 7.824492 5.6849647 4.528798 -4.3917236 5.343693 -2.5151374 -3.7567544 -2.465609 -0.60501456 1.9194825 0.215759 -0.2300249 -7.0186577 0.97913224 -4.4028406 -1.7722147 -0.35175586 -5.5624523 4.0613256 7.429678 5.379221 -1.8808931 1.1126126 -1.0151153 -2.6247766 1.5116078 -3.9388416 0.46165872
*dt_125 -0.7099135 -0.3145867 4.5044 0.2149061 1.2864408 0.8290763 0.23138644 -2.3406184 -2.651916 5.2738028 4.7211385 -1.6141585 -3.3912477 -1.3859451 2.9274988 3.3610542 -1.4172258 -6.4736366 -1.1315527 -3.5639796 -4.5382805 -6.3523717 5.3337245 6.437126 2.5451417 -8.150613 4.25544 2.5870028 -0.7146328 -0.010750581 -0.9858517 2.1881742 1.2180862 1.6701537 -11.298738 3.5851448 -4.059498 -4.8662863 -1.0233576 -5.7057276 -0.16044481 4.2719274 7.4814887 0.37416506 4.9621134 -0.6232685 -0.23445491 -0.23691584 -4.9815726 0.7471043
*dt_126 2.657469 8.174154 4.966462 -5.8526216 2.945781 -2.8252697 -1.7610959 1.3455966 -5.867346 -5.498919 5.1808233 5.6655006 -0.22051789 -1.8389179 1.911047 -5.8772435 1.7248 0.670706 -2.0872526 2.7591648 -4.7315354 3.1999223 -6.370037 9.450107 5.078331 5.3079233 2.2798154 -5.820717 0.80631787 1.2478255 1.5624279 -7.3539715 -0.7955988 -9.283086 0.09823893 4.4072366 3.4453554 -7.371818 4.762255 -0.5681801 -1.8835859 -4.9331303 2.318207 -1.835154 -3.8358617 -6.782772 0.14713739 -4.597861 4.5669537 10.103628
*dt_127 -3.5327864 5.915657 0.9578623 -6.5592704 3.1289885 -3.3339624 -1.6022846 2.726321 -8.539395 -5.5131087 1.0506871 5.690961 4.319043 -2.1352615 -5.328127 -8.403321 -3.887692 -3.448575 1.5071992 4.9499373 -6.2037597 0.98228395 -5.6487584 9.606491 3.2562022 1.1758548 3.111006 -2.759276 -3.1532733 2.9494636 1.9916084 -5.106549 -3.4903996 -5.2277365 4.9701486 1.6445564 -2.6882493 -7.6648417 4.314123 -6.2226796 0.13404432 -1.8297704 -2.0896919 -2.8943036 -1.242104 -5.640097 0.15900809 -3.9097397 1.931926 8.043492
*dt_128 1.4632932 -1.9709225 1.5096056 -3.569361 -1.5672481 0.019868838 2.4700582 3.7256548 -5.535583 -1.635303 8.433588 3.651291 -5.9808645 -0.70424277 4.7996116 -5.357724 1.1558142 3.320131 -4.8164153 -2.3571925 1.9139677 3.163671 -2.811612 2.9713593 7.4665327 3.2065947 1.9312694 1.2387577 -0.116756685 -4.641516 5.2498455 -2.3491964 -3.4270759 -8.551146 -6.840284 2.1864276 0.034878407 -3.0392413 -2.0291471 -2.5796013 -1.7547867 0.8571269 1.4677571 -2.9367256 -1.8368067 -3.9285197 -1.67798 -2.6406758 0.27124235 5.1820107
*dt_129 -2.4961216 2.8050778 -0.7579674 6.048045 -2.0868826 -1.7949475 -1.7010725 1.9366672 -6.2990117 -3.4924314 5.4132385 7.2269926 6.6109276 3.2791796 -0.32362452 -4.3295937 2.0360305 5.8505554 -2.2664661 -5.2083435 -6.373821 3.8780046 -1.6999565 5.20197 2.7326326 2.1798267 4.8400435 -1.7329633 1.2919092 -1.7862438 2.4863749 -1.756986 -1.6527704 -0.6061607 -3.156595 1.9136239 -2.7774155 -5.780108 -0.44126037 1.9919441 -3.2571247 -4.257949 4.466535 7.678277 1.8448714 3.0925899 1.906648 0.47238022 7.8382173 -0.70049095
*dt_130 -3.4656591 4.8300548 -4.272769 -4.100429 -5.6962004 -5.050555 -2.1101396 0.62251174 -6.712111 -2.0947452 -0.2595333 5.2988553 8.57391 -0.6977305 -3.653511 -7.0333023 -1.9751141 2.8069916 -2.3043048 2.957188 -9.000407 3.6155806 2.0639153 -1.5035695 1.1664724 2.866919 1.0690354 -1.4629117 -3.778782 2.8473842 7.13778 0.024901807 -4.27476 -1.5722286 1.1953871 2.9836605 -5.776511 -0.3912004 2.5723321 -0.74638027 -2.5182743 0.49615762 5.289294 -0.9253732 -1.2818501 0.2780184 -2.1430254 -2.4617577 8.966922 1.5475366
*dt_131 -3.5599687 2.030476 0.55180115 1.6796366 -2.6879458 -2.1040494 0.96503586 -1.3114531 -5.810641 -1.9973388 0.4730325 4.8956985 7.017093 0.89307433 -4.611194 -6.6539927 -3.5493324 4.552271 -5.6074767 1.8223484 -4.944434 -1.007565 -4.7963166 1.8382479 5.177228 0.59621626 3.9721968 0.17841053 -2.5337634 -0.07802685 1.204215 5.832646 -1.6701655 0.4710692 -2.774933 -0.5081548 -6.7893934 -3.212123 2.4394524 -1.5037085 -4.18785 -1.0943484 4.50228 2.9548726 1.8262434 5.267336 -0.6224087 1.8661516 7.7337475 -2.295494
*dt_132 1.298922 -1.4331489 8.649014 3.4756503 -1.5310253 2.6155868 5.8924956 -2.3372867 -6.9819818 -0.60773504 6.293589 8.739597 -1.5394883 -1.4738437 -8.643418 -3.1502936 1.9799434 4.1902494 -9.483525 1.158285 -1.9337528 0.5504373 -3.8799856 3.067176 4.8678894 5.335703 6.208118 -1.0583588 -2.656584 -9.144633 2.3779137 -0.22313622 -7.425981 -8.674834 -4.8378053 0.15493499 -6.4081078 -3.1872258 -3.462559 1.6522557 -1.3739733 3.3645723 4.9322667 1.1763862 -8.408489 2.9505467 -7.631561 -4.0589733 5.1947904 2.0257897
*dt_133 -4.2096996 -1.3676 -4.0935483 -2.8789835 2.0184085 2.6640615 -5.9035883 2.669888 -4.5100594 0.9889136 0.9710854 -0.03931317 4.4799776 -2.8160324 -2.1354551 -1.0795733 -2.918473 -2.5084975 -3.460382 1.6434071 -2.223401 -2.444413 3.0077128 0.12844665 3.293705 0.398297 1.2360657 -2.5822318 -5.0514746 -0.2623889 4.9674964 -2.086122 2.5973284 5.4310575 -8.492658 4.7070737 -4.604287 5.7354918 -2.8585 -4.506619 -0.039707918 4.009756 1.4037707 0.88366985 2.5751834 -0.7894471 2.9377549 2.9671235 3.534036 -1.2339454
*dt_134 -3.8581905 2.1853418 -8.155071 0.8002995 2.2042873 -3.5731595 -1.610325 3.1103718 -3.0888548 0.28349546 0.12019749 3.4849758 6.16037 -0.44830713 2.5961359 -4.006094 2.5218084 -0.5953476 -5.5780177 -5.143267 -1.6542302 0.23244776 -2.2669294 7.0213556 -0.4606115 -0.7219608 1.2600396 -5.824776 4.0230837 -0.48929062 3.6461005 -7.500684 -1.420129 0.3336675 -2.2259405 3.383088 -0.55090934 0.50040025 5.381379 -3.6652436 -0.27902344 6.4350634 -0.29148704 1.6709754 0.3184193 -2.1245985 5.54309 -0.8856044 3.860852 2.4912827
*dt_135 -0.45529836 4.751904 -0.029106067 -2.191688 -3.2484157 -0.6529477 -3.463022 1.8101653 -6.343848 0.54997313 2.1556416 7.288226 5.5839667 -1.4746789 -0.3554801 1.002264 0.22379723 2.496908 0.78942925 1.4399643 -4.900307 1.8611511 -1.5097247 1.1240616 1.3359035 3.1748998 2.4152515 -2.4658008 -2.755978 -5.3121333 1.5064987 2.4475176 -3.8108833 0.77672017 -1.002444 3.603511 0.049453665 0.30549642 0.24998087 -1.4145529 0.92970777 5.695167 5.177689 -0.534835 0.2131891 0.52403975 1.4966245 -1.0179771 6.473083 -0.55469096
*dt_136 -4.109078 3.867311 6.1793995 -2.1470494 -0.04889701 3.9021692 -2.4399567 4.2106404 -7.6265173 1.2163217 -0.921184 5.905638 -1.126762 -2.2184567 -2.1030815 1.5227668 -2.241627 -1.7622731 -2.8193083 4.8767266 -2.656776 -2.3108816 -4.0132284 4.9673824 -0.18388678 2.988603 1.9423125 -7.097762 0.19963358 -2.7685568 -0.7719546 0.7902777 -5.2064505 1.5118482 -1.7614933 7.4614754 0.26276833 1.1616955 0.45202592 -2.8356977 -0.27870974 5.237569 -3.2386458 -2.4096901 -2.1645262 0.021945575 -0.048747245 -2.0764995 1.3535967 5.5912895
*dt_137 -0.33758333 4.607095 -1.2685751 -4.502168 1.2746702 1.7394422 -2.6806526 2.328395 -1.0827997 3.9705698 2.8885999 0.97857046 2.7820256 0.24058604 -0.7392814 -6.3323674 5.791345 -0.16246918 -5.6587358 1.9364105 0.94062114 0.8198484 1.6486497 6.080717 0.08133013 8.578148 5.8947644 0.6628565 4.3292713 -0.5180969 6.3622813 -7.6966414 1.1863242 -10.585221 -2.8223038 7.17682 0.0037755158 -3.280271 -0.48102102 -0.026649207 -3.1081347 0.9432947 -0.24624236 -3.269872 -1.6378355 -10.064717 2.796916 -2.5213604 -2.7281811 1.5625938
*dt_138 -0.9950664 2.7982929 -5.2972026 0.5448489 0.33318353 -4.283998 -0.6839591 4.811873 -2.4896119 0.9946894 3.252687 4.2113104 8.930409 -4.027256 -3.6755855 -1.6074041 1.3881023 -0.86786956 -3.942306 -1.6526593 -1.7225819 3.779044 0.18450566 8.369948 3.9740684 5.053573 8.319661 -5.363129 -0.8796321 0.29018414 2.3760207 -5.436213 3.7410564 -0.27424794 -2.5702527 7.906352 2.726987 2.6905706 -1.2046006 -3.044195 -5.5252867 4.14909 0.8411588 1.807553 -2.24092 -0.833366 4.3214307 3.412763 4.9002743 -0.594047
*dt_139 0.49184442 0.66847473 -0.40375507 -0.29652753 -1.6329032 2.781609 0.44873634 1.7977401 -8.343426 0.76839685 6.8578753 2.5235772 3.4673984 4.119285 5.3083525 -1.696917 0.21435165 3.1077464 -1.7799425 0.10181874 -3.233104 0.7132401 2.935773 0.2131797 4.142043 0.34419048 -0.27318293 -2.514961 -0.30287078 -6.2628675 6.3741293 -0.09759501 1.245173 -2.197329 -6.817571 1.7711147 -1.2661823 -0.36928773 -2.7230341 -0.62246275 2.5907564 0.028677572 0.8898528 1.2093401 4.8159018 -3.9897935 3.3730843 -2.9405093 1.9272189 -0.048091754
*dt_140 5.22639 -1.7159532 -0.9985221 -3.0780118 1.1106837 -5.813367 -5.197393 1.6909846 0.6061812 3.2564397 5.4080834 3.8375142 1.479882 1.6627476 2.604261 -7.669998 1.8995308 0.8286378 -0.48239967 -6.2678432 -2.3072672 0.8624074 4.5870323 8.054444 3.720712 -1.9548502 -1.4911826 3.6040149 0.65268564 -1.6144464 6.7741566 -1.621862 2.7555664 -1.4413278 -8.427322 8.047721 2.6269932 -0.61965597 3.0703654 -5.7438574 -1.8481799 0.57068956 2.2548208 0.11292429 0.10993405 -3.0405056 4.385162 4.716165 -3.3520563 5.0657063
*dt_141 -2.3112144 1.0459242 4.543942 -6.094483 2.0027468 -2.2089915 -0.55925167 0.5196405 -6.553831 -1.3160704 1.1759356 0.5924409 2.791509 -4.183556 7.315563 1.0149727 1.4073997 -0.09936247 -3.0174315 5.075352 -2.5233705 1.1717412 2.1647713 7.468883 0.7758398 5.33169 0.5500791 -7.031876 1.8711396 1.2300227 6.8592043 -4.6703486 -2.7034972 -0.15307485 -6.6465335 3.581455 -2.617619 -1.5535436 1.0944407 -5.0695834 -0.3744128 6.4163136 -0.9220759 -1.64834 -8.237726 -5.4669385 5.412594 -1.9025294 -2.4702594 6.034233
*dt_142 0.8849868 -0.17504905 1.8599485 0.68652225 6.3442984 -1.3136488 -0.12509252 0.51449555 -2.3141568 2.8304977 1.4909483 5.436026 2.3295333 2.3856657 7.7227664 -0.36911398 1.3224236 0.60236394 -3.840071 -1.9483773 -1.8558433 -4.1862707 7.462702 7.988744 4.0045176 1.0521556 0.4985713 0.40521666 3.3533595 -2.5921798 -1.9495108 -1.6834878 3.3987808 1.6268839 -7.9121885 11.239327 2.8338046 -3.0764925 -3.0806496 -2.412406 -3.034722 3.310096 1.0545741 2.6615803 -2.0185292 -4.9041824 6.1428347 -3.2595804 -2.5984995 5.1040225
*dt_143 -4.547047 2.529752 2.0245566 -2.9677773 -0.94280165 -1.3137347 1.5509633 0.46313608 -1.7900116 3.9303148 1.8883326 -0.52712363 -2.2333653 -0.56099594 -0.22777781 -1.3256372 4.1409907 -5.439547 -6.3409166 0.45253015 0.7052512 1.4930446 1.1164542 4.1257887 6.0347114 0.6971553 8.194384 2.4482174 -1.6420767 -7.624119 -1.3866085 0.255847 1.3606133 4.6069126 -3.921015 2.7934856 -3.5953572 -6.585266 6.5590825 -3.320769 -4.390721 1.5785465 4.8482904 -1.1566268 -3.050004 3.227275 2.1478493 4.8417735 -6.883551 1.6382681
*dt_144 -1.1579963 7.053033 2.2744792 4.8113923 -4.223508 1.1120533 0.88089764 3.3168042 -7.9092436 1.3187708 0.9938127 6.815429 3.323967 -0.10600449 1.2130761 1.4520812 -0.80330795 -2.5238895 -2.5819778 -0.101178646 -2.2938354 -0.6985191 -1.1556444 4.4396515 -0.94052005 -2.0324154 5.6073604 -7.6205845 1.8204721 -4.186904 -1.7101438 -2.2934332 -2.44266 -1.7298315 3.032638 6.8957667 3.455685 3.8830788 2.27901 0.6561336 -3.7457545 5.7552004 2.475935 3.774072 1.7987381 1.4805382 0.21183544 -0.20978454 5.7464123 4.229985
*dt_145 -0.11749553 2.45695 3.9019725 -2.6173792 -0.2180643 4.136169 -4.545766 5.3081746 -5.976711 -2.346415 1.2604084 5.0425344 4.3383594 -1.094483 7.885885 0.98187315 2.4688282 1.4311637 -3.9074087 -2.4327905 -3.9300926 0.9261257 -1.074806 5.9511385 1.3758094 -1.5719076 0.6655727 -3.7805645 -0.24301751 -1.4828885 -2.6627083 -3.0834317 -2.5109975 2.2484674 -0.77132714 7.497856 1.4631302 1.1530768 1.2354995 -0.86611515 -3.4173806 2.8687096 4.9847045 2.539999 -0.34771803 0.031377055 0.1901866 -0.23386338 6.6071553 4.1216416
*dt_146 1.5812321 3.9726021 2.0113454 4.920579 0.8086594 -2.5238626 3.655451 5.9529305 -7.198919 4.1023498 1.3103957 -0.9246324 -1.818733 -0.7397671 -4.5687146 -4.9669895 -0.78866655 -4.2911196 -4.2325034 1.1199838 -0.086446695 -5.1744 5.132523 -0.10593317 0.40591586 -3.0487268 1.0154502 -1.181568 2.8953798 -6.5470867 8.153033 3.94603 -5.2551017 -1.3690718 -7.967698 -0.9317852 1.2131983 -1.6519061 7.459243 -6.7262006 3.8978696 0.7312377 1.3215026 1.3985337 2.2678733 -1.1166668 5.573716 2.1303992 -6.7905254 7.099038
*dt_147 2.392865 1.5497174 1.4844761 2.8970609 -1.2114252 -0.7084306 -1.590868 -0.33452165 -2.7432585 0.30196106 1.2043595 2.507657 4.2147064 2.1071072 -2.2771316 -2.5854316 -5.192763 4.8715973 -0.036715552 1.1453025 -4.4899254 -3.6827593 2.2746108 -1.1174535 6.673167 0.53754646 -0.4540865 -5.617961 0.2975657 -2.9607246 1.044095 3.446394 1.0769267 -0.09598154 -4.7696376 7.4070864 -4.0822034 8.199533 0.6063955 3.0650818 -7.891748 2.964866 5.0266943 1.4800233 4.555961 0.06758192 -1.2846792 -1.9670725 4.893877 4.069168
*dt_148 2.8436441 5.3900065 -6.881305 5.2861123 4.174189 -4.1174755 -0.077607 5.702513 -5.003991 -0.46559384 7.7692633 -4.67388 -5.358097 -5.400908 -5.653559 -3.5603821 1.6325251 -7.2981944 -7.755243 -2.4859877 -3.193103 -0.5943512 -1.7021381 11.021926 8.340767 7.6712675 0.3602701 -6.9567986 7.1935225 -3.4823248 11.322724 -11.026166 1.8685277 -11.588172 -0.19487256 -4.90695 0.16907229 -1.0136945 2.5661266 1.1099825 -3.6424425 5.275273 7.262542 -3.6839895 8.070413 -4.4020014 1.3282067 -9.970551 -4.826077 6.964037
*dt_149 0.5967007 -0.24188603 3.3595517 1.948454 5.664761 -0.09455061 3.4410346 2.0016997 -8.460396 4.479926 -0.6881339 -0.8557076 0.90893924 -1.7821018 0.05914166 -4.2978005 -2.1657336 -0.9672581 -2.3906116 -4.778266 0.11807622 -1.5402315 5.538976 -0.7239903 1.9190348 -5.6383963 -0.4434967 -3.4798858 2.9887373 1.326991 7.591886 5.254075 -6.817824 3.0623994 -7.46375 4.878297 -2.4515908 0.97156185 3.9997609 -3.778552 -1.5903375 1.4129969 2.6660378 -1.8518864 5.096513 7.6315575 1.9749042 -0.0837341 -4.7983346 -0.119816765
*dt_150 -5.5107093 4.55848 -1.2334504 3.051416 -6.063971 1.6654465 9.093352 3.4679613 -5.608927 1.2326951 5.315336 5.627483 4.929664 -5.5469074 -7.7297845 -8.652336 -2.7341692 -5.97666 0.57776624 0.26436257 4.3824944 8.214449 -3.3621624 -4.54543 5.0647225 3.2226188 11.515862 -2.026197 -5.3327103 -6.001186 -4.9168944 3.628391 4.979116 -5.1864347 -5.6983175 3.7782795 -3.0368805 -3.0478914 -1.4142882 1.4783503 -7.590489 3.4405065 9.607991 -1.243723 -0.4164373 1.0929408 0.065815955 1.9020332 2.9004607 1.3639357
*dt_151 1.5121422 2.4777906 5.790475 -1.0641001 9.146504 -2.0182116 2.6915882 -2.9377925 0.2302692 -1.9566492 -2.3931913 0.9309918 1.6677969 0.58936524 3.1337562 -4.414143 -3.761797 -5.3086095 -4.0461416 -3.9683192 -6.7785225 -6.3216043 2.3390129 5.275643 8.965805 -6.088016 -2.214551 -3.0168755 -7.075145 -3.100428 -4.7492733 4.8017945 -2.157726 5.707558 -7.0317836 1.0962763 -6.8774023 -1.7672374 4.438193 -3.7206333 5.1262894 0.09604189 8.068606 2.040624 -1.1467277 0.3409743 -2.5919874 1.9287523 0.8102489 7.4178805
*dt_152 0.7296832 3.0362103 4.419324 -3.2902014 3.354955 -2.2431052 1.3912034 -2.409738 -2.9559367 2.7810767 2.3576775 -3.2043128 -4.7675843 4.6087646 -1.9777437 -2.7647038 2.5546622 -7.478872 0.37156102 -2.0303197 -3.6548145 0.2674488 6.480949 2.0100212 3.0855184 -2.3806047 2.020445 -1.2056489 -0.21930708 -2.6647396 3.004289 2.7358625 -0.12514336 -1.0485253 -5.8813667 4.5846744 -1.5669413 -2.689992 1.9282444 -9.029519 4.1347485 1.4212563 4.4033666 0.112171754 -0.26740798 1.0803324 2.5571048 4.158095 -5.267931 1.5010601
*dt_153 6.821419 -5.9874554 10.221899 0.4206448 11.982752 4.711654 3.619603 -2.7325962 -5.561218 -4.082324 -4.0464845 11.138877 -5.0180664 1.1352023 5.661152 -4.9373927 2.4366863 3.569182 -7.8177056 -3.96419 0.8876137 -5.0424676 5.7761855 8.645561 6.1474776 -0.28537866 8.607001 -3.633129 1.1968925 -7.440966 0.99464804 -1.6296248 -9.758331 -7.496722 -6.7993927 2.3451438 -1.9646572 -1.4922224 -10.801178 6.6149726 -4.444471 4.6974387 5.152018 3.3133843 -4.4231586 2.9973497 -3.1340082 -3.4874039 -2.8160717 3.4440904
*dt_154 5.5103917 -1.6997534 -1.2328117 0.4999776 1.023408 -1.0732203 -5.0287457 -2.3847265 -15.142824 -2.991522 11.42954 10.002646 -0.8183879 3.3902264 -1.9909486 -1.4016339 -2.7086859 6.6545897 -0.4957953 5.804993 -0.31452343 -4.839559 6.457299 3.4922574 3.0906768 1.5160304 -0.45791438 1.0577352 -3.0606263 -9.308601 11.383547 1.1627926 -2.2678614 -1.9414982 -8.256062 0.80255914 -3.8386085 -4.7874875 2.737963 -1.7243373 -1.0322083 -6.354157 -0.5933518 3.3009384 6.7617583 -2.7041225 5.6515403 -3.4183793 -3.261074 -1.3145368
*dt_155 -4.900878 7.496481 0.80833155 -4.218836 -1.3584526 2.6339421 -0.71136254 -0.3002872 -6.5675135 -2.0720994 -2.5551903 2.8852196 4.4576235 -0.68662673 -5.0544386 -2.3778627 -0.8995423 -4.290315 -2.5843298 2.359209 -5.478837 2.0278842 1.4384423 0.58643234 0.15710321 -0.44332483 2.66724 -5.41454 -3.3230522 1.5298953 0.21785004 -2.922841 -6.262516 -0.691858 2.4765408 1.6866387 -2.4167016 0.11177241 1.316873 -1.831208 2.2287006 3.7596326 2.801113 2.7942274 -0.4060248 -2.3090587 -2.3343618 -3.106186 6.034425 3.5322087
*dt_156 -1.2000079 4.393189 2.8775365 2.7375033 -0.11874721 1.3710022 -2.9666455 4.964179 -5.4031773 -2.1008673 -2.705896 7.0751524 5.40499 1.0512404 1.8924377 -2.8766174 2.633971 3.3341947 -5.3409305 -1.1797332 -3.7541137 0.6296571 -0.504999 5.349866 -1.2418592 -1.24294 4.3844857 -6.709932 -1.135089 -4.062291 -2.48897 -0.3616382 -4.0407653 0.61800367 1.0570481 7.7896643 2.434402 1.2941625 0.974184 1.3294199 -4.6642447 2.017726 4.696457 5.365082 0.5908509 -0.26001778 1.3613424 -0.060963392 5.7296004 6.092551
*dt_157 -1.6655289 5.946428 -2.6336148 -1.4373168 -2.1297832 -2.0437465 -5.0996647 2.188681 -3.1516795 -1.6461935 4.7372503 5.8946958 0.7327745 3.6213036 -6.368911 -3.8372617 4.623015 -2.438624 -4.3392477 -2.1288183 -3.3813367 4.3612385 -1.5206207 9.419001 0.46487942 4.955904 3.7282124 -3.526958 1.0057619 1.3119936 0.8930814 -4.0897474 0.562089 -4.768632 -0.8714228 7.6333256 4.9045177 -0.3798975 2.5555527 -2.5541937 -1.9136083 2.6846976 1.787612 3.1631868 -1.9967605 -3.6272368 3.598482 2.693704 3.8688917 1.0474716
*dt_158 0.15204163 -2.222712 -5.5900755 1.4445261 2.2884383 5.5349345 3.102575 -5.8388634 -6.1034894 -1.284121 7.7076263 8.68285 -1.5661836 0.07208155 9.093783 -3.355356 0.009660277 1.3958074 -8.768017 -3.9452033 2.5159085 -4.438741 2.6184752 7.0308914 4.6223354 3.8945396 1.8770264 -2.0236802 5.9588294 -9.365309 6.0139756 -7.1651196 -5.4303045 -10.190607 -5.0460663 -0.42685583 -1.0175292 -0.47579515 2.527713 -2.4375513 -4.7123404 2.4831574 -1.8498707 3.5771134 4.911604 -4.9740677 -4.4369397 -2.3856497 -1.9311258 -4.555846
*dt_159 -7.6905026 6.9599047 0.034586996 -0.19873297 -1.2146417 0.46240616 0.5972662 0.31047392 -4.0617185 -0.75530064 0.14335907 -0.09278567 1.8647157 1.810316 -11.996791 -4.9787045 0.4326689 -1.207214 -6.218651 -3.4936576 -0.059665468 6.1573906 -1.5896084 -0.9933396 1.7116148 -1.7853031 7.9109893 -2.3133104 0.6631762 1.7783608 -0.5691817 -4.645547 -2.9888005 -0.94372934 0.20605731 5.8519993 -5.3146057 -3.5067158 3.22378 -2.5154817 -0.15761073 0.45689145 1.9104778 2.3651998 3.8875287 -5.751943 4.0219584 -5.182895 2.4391813 1.8128188
*dt_160 -4.8262787 1.2783896 2.6447225 -2.850963 1.782547 5.0112414 -8.021633 2.5847368 -5.7109723 -2.017186 1.873234 3.9834168 1.9617248 -3.2381063 5.451211 1.4986203 0.66443706 -1.3559554 -4.4920187 2.2448676 -3.3116896 0.30309373 0.49226227 8.789051 -2.1910226 2.2069862 0.34774145 -5.4223013 -2.2564714 -3.7640684 3.649694 -1.9386822 -2.88981 3.843553 -3.1675754 4.5102577 -1.4424934 0.48862353 3.153462 -4.136986 -4.5838842 2.7695444 -1.3355993 1.0488796 -0.9188247 1.450741 3.7765431 2.3191957 2.0740402 1.6032541
*dt_161 -2.7666614 2.91991 2.50499 0.9475863 1.0818974 6.4369316 -3.4769316 5.532486 -4.0537763 -2.6204665 0.821604 6.428062 3.412896 0.531036 4.61157 -0.7496841 2.3844025 2.3786285 -3.4801738 -1.0481968 -3.334773 -1.6965019 -1.7766349 9.808022 -0.7023127 1.1316588 3.8093228 -6.575738 -1.8497814 -3.7207458 -4.0789466 -5.367854 -4.570166 1.3198081 -1.2219144 8.84995 0.5713642 1.9314834 1.9697646 1.3499689 -5.9923506 2.4626074 2.0100827 5.1480255 -1.624246 -3.1785865 0.2998301 1.4553944 5.817256 7.199859
*dt_162 -0.28586712 2.3025162 -0.13839416 3.0050972 -2.546188 2.4981766 -7.021694 -0.026759528 -8.121303 -0.9807952 5.2571907 3.3491511 5.4934874 -1.0541667 7.301998 2.8839087 -0.29401124 0.7495899 -11.307245 -4.761936 -2.1677203 4.286616 2.521097 5.514483 -1.2736193 1.4401252 -2.2502441 -2.6617465 3.0929704 -5.815773 13.268344 -2.4793108 -3.0468857 2.8680634 -3.928594 3.1353123 -2.7831023 2.4221618 5.166632 -0.7697202 0.888835 2.1042807 1.6620541 2.887838 2.3025067 1.0015588 1.33653 -0.53385335 3.0679543 0.06005398
*dt_163 -1.5603881 1.4395171 3.067165 1.3864967 6.9742184 5.0674353 -2.7183254 2.4362118 -3.3918474 -0.3230794 4.91828 3.790939 -3.6786158 0.7999221 5.7856474 -1.3124524 0.5431338 -2.6080906 -5.2275143 0.7395083 0.8717134 -1.6857232 0.3625873 8.365078 0.9753399 3.1656256 -6.139197 -2.5869803 1.8068556 -1.0806551 1.901827 -1.2800963 -3.931525 -1.3921787 -6.4939933 9.472154 1.2618703 -1.3097272 4.452187 -7.9747763 -5.0975513 1.5370122 -4.6851854 0.4247532 -1.2765365 1.2600749 2.258056 2.146992 0.3170065 0.42580137
*dt_164 -3.482541 3.673382 3.7271938 0.05700093 1.788203 5.230509 0.725991 1.7515867 -1.2094419 2.4930127 -0.54437447 1.9743985 3.8827162 -2.3879862 -0.92794 -1.0180414 -2.19749 0.034081664 -6.1939025 -1.2361884 -1.45308 -0.9895394 2.8795433 3.0608003 2.4094741 -0.74233013 5.587857 -3.77118 -0.24723819 -3.3471458 -2.6381814 -0.38871506 -3.1453745 5.923264 -2.337436 5.288428 -1.8136386 2.5354185 0.26356074 -0.4593051 -2.5243368 1.1645671 -0.577578 2.7975113 1.992976 -2.620355 2.5082767 -1.0195416 0.5709642 2.7375402
*dt_165 -1.8600345 -1.9601041 7.9598227 1.8523253 3.7546391 2.0010214 -0.6777685 -3.2464764 -2.3473687 -5.271858 -1.2583492 13.641796 -0.5001374 2.1494048 5.5073085 -8.141696 5.773878 -3.7961962 -5.370407 -4.1473536 -2.5309315 -1.6054289 6.1446214 1.3249387 -2.355367 2.0894513 -1.8123674 2.001135 9.255922 -3.1995795 0.10934841 1.7305722 4.6336803 -8.41685 -6.7301497 12.217256 -0.39642674 -2.9381006 0.288485 4.4006963 -1.9167389 1.6640216 8.476731 3.118812 -0.8724078 -2.4583285 -1.4498836 -1.7553146 0.102590464 9.199091
*dt_166 -2.8034847 -2.3692012 0.6996885 0.8966096 3.9465456 -1.5662582 0.38214037 -2.7559862 -8.069209 -8.474262 -2.5878618 15.724217 1.3853823 4.6784654 3.1275454 -9.128322 6.077282 -0.5441585 -3.3965123 -5.937996 -1.8850111 -2.610433 4.4105997 6.8342047 -3.0693996 -3.6287756 -3.7730904 0.7694179 7.140466 -0.24102569 2.373851 1.0804859 6.74154 -5.2020564 -6.367775 12.428877 -0.02927401 -1.5510337 4.1860137 3.3597093 -4.5351605 1.6404359 5.9721055 4.109334 -4.1317677 -2.3023322 -1.4255302 1.6268545 -0.5414713 10.794858
*dt_167 -0.73257476 4.810529 1.4181108 -2.7001922 0.6243894 0.54330397 2.5920706 -2.872932 -0.62396204 1.7256433 4.73276 -2.7453568 -1.6703961 -4.0412245 -1.7819192 1.62371 -1.7896557 -4.6950374 0.02414485 -6.6462445 -7.578572 -4.117843 4.780593 3.8657236 5.4979343 -4.748497 3.034787 -1.0566518 -3.3761013 0.9524415 2.668989 0.97198987 -0.43615857 3.7254534 -9.294324 2.1543033 -6.74404 0.22504257 2.605823 -3.8134873 -0.73960435 0.6275436 4.864566 2.4993002 4.541107 -1.8378954 1.4214398 6.76788 -2.8207374 0.22565348
*dt_168 2.7289543 -2.9361267 3.538782 -2.1019077 0.30394074 -0.60741854 -2.3159711 -0.025463186 -5.852229 -0.61022675 6.162093 12.440749 3.0184262 3.5889072 2.9228208 -0.4825003 5.0030694 3.1429856 0.7463332 -0.42537642 -3.092105 -0.5262799 1.3323144 7.910215 -0.64467496 -7.124385 -2.4679475 1.0970142 -0.6760018 -8.068528 -3.4939108 -1.840268 1.6331705 -2.6857982 -8.3857355 9.338832 3.452831 -1.6797994 0.78248125 1.18023 -3.4441307 -0.880964 5.7345424 2.8157032 -1.8926882 -0.86215997 -3.6250951 -3.88982 -0.8785265 4.473483
*dt_169 -4.942129 -2.6737611 -2.1115196 -0.87569815 -5.2710032 -3.3194087 -0.50324047 -5.0975127 -7.3621883 0.094687164 2.6858828 7.4556055 -1.5015785 6.6861854 -3.2765288 -12.636702 -6.6249833 0.097237475 -6.3354907 -1.9839274 -7.059402 -0.039532784 2.414859 0.99321574 4.542984 1.7778629 -2.0628374 -2.0679212 -1.1981839 5.6704373 6.44455 2.075473 -1.9176029 5.963264 -4.867384 -0.8498876 -10.462655 -6.6123033 1.7754385 1.075369 -3.9993324 -5.525553 5.7922673 0.26039174 -0.046540003 6.419421 -5.171399 0.1845754 1.8848242 3.2734163
*dt_170 -4.8146544 0.47381642 -0.5515126 0.881491 3.8668578 1.6403036 -4.292589 4.574393 -5.117535 -2.8642159 -0.53152317 5.8480797 7.417969 -0.15746537 6.404147 -2.9500742 2.2976406 2.728747 -2.9307227 -3.441587 -3.8916469 1.4088414 4.073913 5.2285914 -1.5216905 1.7316407 3.5612018 -2.6972573 -0.19625473 -2.526815 5.3815255 -2.8875537 -3.30449 6.696032 -2.8591392 7.1958036 -1.9865928 -1.4210064 0.0687137 1.2294624 -0.98336333 2.5707045 0.8781702 4.0848737 -0.048491634 0.18124689 4.0719905 0.037676338 2.811484 1.8797914
*dt_171 -2.3045738 6.607373 4.9213815 -2.4991407 3.362214 -1.7969711 3.2851636 -3.5376484 -1.0368687 1.9052657 0.07904992 -0.15392734 0.5382882 4.388606 -2.5547318 -6.488836 1.544262 -7.2591114 -4.0037127 -6.8019853 -3.519065 0.09488521 1.256988 3.4331448 5.0093045 -2.670366 2.2679825 -1.1794137 -0.0042704674 3.6988554 -0.9631757 3.3740642 2.3633118 1.3481318 -5.8650455 3.3049707 -4.2991424 -4.6012073 1.7881414 -7.3587275 0.7234044 -1.6753032 3.7322116 4.874018 -1.2893529 4.6520095 2.6689718 7.5278926 -2.1855314 -1.5069761
*dt_172 -2.5375752 7.384177 10.08012 -3.2671108 2.1630425 2.7206793 -0.3989462 1.4258847 -10.555116 -2.4557254 1.7780051 -3.7460182 -3.4913583 -5.233205 0.46706644 3.612691 -4.3476634 -5.142409 1.4258754 1.2070416 -2.8096418 -3.4470146 -0.83172005 5.1110997 1.4561294 -0.81483763 -2.0079942 -5.765417 -0.4087048 2.5257201 1.0969651 3.0260932 -8.567782 1.5028831 -5.427282 3.3302388 -3.333065 -3.9293778 5.7270665 -7.906298 -2.1685543 1.5318881 3.4348345 -2.6989112 0.649223 4.6111007 -0.24770224 0.70935017 -5.212434 -1.4271623
*dt_173 1.4465773 0.84377116 4.58151 -7.2144895 -0.466354 1.9386387 -7.245571 1.8372884 -4.0340285 -0.33284947 -4.045209 3.3772616 0.73431104 -1.6617254 3.597662 -3.886203 -5.316369 -1.9618981 -3.2345347 6.2598147 -4.729046 -0.53219265 -0.26992145 8.126233 0.8520952 -0.05923702 0.67091197 -1.8988503 -5.9259496 -1.781712 -1.0522573 1.9580956 -5.570717 2.711897 -1.4141452 5.315646 -2.1313384 1.3357172 0.9091131 -3.0721335 -3.6719534 4.049808 2.7994227 -1.9497172 -0.25197807 -0.553967 0.044568304 -0.81029207 1.0109485 6.93674
*dt_174 -6.5562916 4.9841075 -0.9696452 -4.66076 -2.1003346 4.7745414 2.5150557 0.09833459 0.22400089 2.2497597 2.330706 -2.7042677 -0.47666585 -4.1632237 -5.6240396 -5.8473277 -3.96291 -5.77433 -4.7728863 1.749696 -3.2326891 0.4292235 -6.132911 1.0877467 2.8448427 4.320088 6.12291 -4.8763595 -1.2141558 -1.003342 -3.2946315 -4.592301 -2.278858 -2.445138 -3.9107273 4.655469 -0.91350186 -1.789196 4.0534096 -7.547598 -4.777577 2.812907 1.4784429 -3.6047547 1.485661 -5.7856994 -3.7058666 -0.5290285 0.47924381 0.903798
*dt_175 -1.8034251 2.1857388 3.8096178 -2.6531303 1.0744748 -0.61216533 -5.402553 4.905937 -5.3881183 -0.32622075 -3.5953693 1.9258573 0.3631812 -1.7729721 -0.24212134 -4.3378134 -4.4254007 1.2343018 1.3010917 4.054862 -4.85619 -3.7801752 -5.2142243 3.6178954 0.9906625 -4.471393 3.0438786 -6.4872 -3.085831 -2.4608352 -3.8847222 -0.42679423 -6.154406 2.9451144 -2.2585325 5.212081 -1.6640363 -0.3694762 1.0106977 -1.6037885 -4.215153 2.7206721 1.976624 -1.6403337 2.573367 -0.4493342 2.7143621 -5.5390797 2.5669787 4.7755303
*dt_176 -7.504155 4.038055 -1.2435552 -0.47256836 -1.2394803 -2.3734753 -4.312961 -1.0115306 -2.8183846 1.222891 -2.2443182 0.6362646 1.299667 1.2714906 -12.29727 -5.842459 -0.92594934 -2.162209 -4.195765 -1.8592534 -2.0548337 4.214285 -4.6814675 2.0918078 3.1304045 -1.6700852 5.850862 -0.74663925 0.56863827 0.8061311 0.8844414 -5.421487 -3.364005 -0.39527547 0.11578075 5.9126744 -3.8473718 0.20856476 1.9875041 -4.5541053 1.1040723 3.923512 2.2317939 2.3465712 7.045226 -2.531023 2.1826174 -2.0774179 2.7703524 -0.5756848
*dt_177 -6.2795086 1.854611 3.1112788 -7.961495 1.3335501 4.2880425 -1.4499024 1.051472 -2.2726455 0.061890304 5.9353228 -0.8897556 -2.523539 1.9275405 -4.623904 -3.1394114 2.3238285 4.096098 -2.726777 0.5402286 -5.6014347 -2.2057896 -5.9403167 4.477382 7.4859385 2.3399553 5.4296966 -3.552328 4.5803475 -2.2078068 0.35115904 -9.221067 -3.4060667 -1.3475559 -3.8296762 7.2625265 -1.8591784 -6.071161 2.855169 -2.0084186 -1.08631 -0.4418534 0.9904902 -3.0980597 -2.5115013 -7.6623144 0.5350964 -3.1848886 -3.0881822 6.9658275
*dt_178 -3.7400522 7.6923547 1.4855129 -2.4492123 -2.596097 0.093294606 -0.14465582 1.7812319 -0.9777814 0.69665074 0.5332895 0.60663944 0.5206898 0.69071186 -11.669301 -4.29169 -0.56450605 -3.5932107 -3.14188 -0.5644819 -3.295094 3.5731306 -0.83040047 4.1316023 0.015101674 -0.1469492 5.9027057 -0.58197516 -1.8367522 -2.6904042 -2.383659 -0.96053976 -6.1476135 -0.9346821 -0.87659985 4.077546 -2.3062382 -3.473366 0.9579081 -2.3228307 -0.5902169 1.4719857 1.8835723 2.1427376 0.80813074 -4.566344 1.5902047 -3.4717405 3.7573116 3.544609
*dt_179 0.077724 8.197538 1.4617237 3.1433418 -4.4032693 -4.8910923 0.7568489 5.9394307 -3.96728 3.4147587 -3.3520842 7.7070823 5.46402 1.2967905 -1.8768517 -4.562479 -0.71792454 0.5114205 -7.6235223 -2.093358 -5.2302694 -0.7423745 -0.4904453 7.4806137 0.3837409 1.2744752 3.1635194 -1.0299581 2.5172048 0.55537397 4.6318045 -2.8181224 1.6521442 1.9436876 -1.9051214 4.422433 1.2902548 0.6629165 2.6742175 -0.11859761 1.6335664 2.3282595 2.087373 4.182424 4.2544923 -2.8128 4.661673 3.34256 7.1204357 3.1420705
*dt_180 -2.5501542 4.722007 2.0933433 1.1982585 0.5608253 3.4118097 -3.2647326 5.372141 -4.009358 -0.16598864 1.4980752 3.878798 3.8481505 -2.7361484 3.9947536 -0.3404547 -0.26391247 -0.25842097 -2.5023313 -0.9466314 -2.9728198 1.3048807 -2.4007459 7.033175 -1.2626503 1.0382186 2.8400664 -4.474334 -0.5026332 -4.299248 -2.5388732 -4.586063 -3.871676 5.984718 -3.802656 3.6366436 -1.1407611 -2.6410775 1.259863 1.4397117 -2.040723 2.3492734 1.6127069 4.248131 0.42067543 -2.0787337 3.760251 -1.6417896 5.699428 4.4571004
*dt_181 -3.4014232 4.119768 -0.30827716 -4.6925745 -1.6169071 2.8428874 -0.3129098 1.5567966 -4.047027 -1.3504347 0.6519816 0.2008996 -2.6212413 -0.95635974 -7.9343657 -4.2363048 -0.06212777 -2.5821736 1.0676664 3.0088043 -4.564336 -0.02456951 -2.2630603 2.8222446 1.4975265 2.3940368 5.652026 -3.0488393 -1.7816716 0.23081803 0.56296074 -1.6896122 -3.678782 -3.8295815 -1.8519288 1.6900373 -1.8064399 -2.5038447 -1.0535864 -2.553593 -1.774902 3.9286392 2.4496856 0.15987451 2.1633172 -3.220302 1.8610281 -0.7027415 -0.5972905 0.45524356
*dt_182 -2.9394433 4.0864406 2.2808588 -6.793095 -1.70185 2.6142395 -3.6612337 -1.7406183 -6.3043747 -0.43640563 -4.2480783 3.6967268 7.547952 -2.5009935 -2.4325483 -4.0604877 -1.2033772 -4.0565004 -4.066616 1.4233632 -6.186925 1.4140013 1.9946774 -2.706277 3.763049 1.7064422 5.910755 -1.7054077 1.7507721 -1.5471594 5.2371683 -3.3037982 0.4193833 2.1712909 -0.7388707 1.9510803 -2.3468735 1.3060391 0.12023981 2.8738008 3.7906163 -2.5910017 3.8741205 3.3610291 4.7527614 -0.013500068 1.0283886 -2.634212 3.8209622 -2.1174796
*dt_183 -2.9848397 1.5818018 3.1844027 -2.4964905 2.3025532 0.65340257 -5.7605777 5.630887 -1.8281991 2.5724247 2.9918437 0.024975669 -0.57638514 2.5277033 2.1470695 -2.0371978 4.9359655 -3.8232172 -7.8517776 1.5852104 0.3893867 -5.013502 -1.5691493 8.882598 4.8670497 2.2673092 3.7595725 1.6176033 0.52919453 -9.501085 -0.26014888 -0.49393225 -2.7421355 6.1662827 -3.9967055 4.244759 -0.41281697 -6.1553984 7.075744 -6.5611978 -3.3174894 0.61370224 4.900135 4.064589 -3.0886993 4.9760737 3.9537046 8.306326 -8.952739 0.49714175
*dt_184 0.95250934 3.1652484 3.5574927 -3.096877 5.651154 -1.4437263 -5.287738 3.7638292 -3.187133 -0.69772136 -0.6863817 2.4418871 -1.7502904 2.9620986 7.9729285 -0.68579566 5.6901093 -1.8102468 -4.4240127 -2.283878 -2.427509 0.3298899 0.49261284 6.8654156 0.41828045 -2.2254364 -1.176353 -0.57065874 3.6878235 -0.6964933 1.8565768 -1.885466 -1.9390484 -4.0480585 -2.1053224 10.308747 0.30372244 -2.596139 -1.7810588 0.11132373 1.791553 6.5056257 3.1967516 -1.5402566 0.37485984 -1.9924461 3.666815 -6.797881 0.3546685 7.0942497
*dt_185 -1.2047164 2.1259334 2.7207499 -0.9185706 2.456473 -0.3140323 3.2975767 -1.2925202 -0.18402117 2.9868867 6.666745 -1.4353163 -0.67371076 -1.4586691 -0.94436496 1.1739392 0.9266747 -5.0775623 1.5732238 -5.467057 -4.572703 -5.69717 4.3522425 2.2242126 4.9095984 -3.6050422 4.010913 2.0777254 -1.8246706 0.37088904 -1.5826708 1.2450806 2.6188064 0.78383446 -8.513618 4.99583 -5.122878 -2.4467444 0.22607723 -3.5652697 0.71864563 2.6516836 7.9437947 1.1605909 3.9234064 -1.0737505 -0.13896 2.3490224 -3.6799011 1.9907002
*dt_186 5.7481785 -10.594326 6.2593317 4.9509454 8.811757 0.2155447 5.1600933 -5.8356433 -5.082533 -5.0875535 5.093595 16.801271 1.717872 -5.4745016 3.4995558 -1.9588119 -2.0888264 0.3931533 -8.433594 2.9053993 4.39511 -11.156841 1.8828161 3.945109 7.0184445 2.0130289 3.577179 -0.89596117 9.199749 -10.584024 1.453849 -0.58139044 -0.42158082 -13.580106 -12.016329 7.849149 -3.8956997 -1.3352265 -7.4329495 -3.9734304 -8.788678 3.2454374 5.209961 2.6643279 0.6106342 2.622575 1.0740279 -2.9916697 3.4751506 1.3568287
*dt_187 -0.8213864 -1.050236 -2.2124977 0.38085687 -1.0450573 -1.2027118 1.1468815 -0.14178939 -4.3754086 -2.516912 10.090602 2.552824 -0.4809237 3.5745854 1.1876951 -7.2885547 -0.052272633 3.4170537 -2.6975904 -3.9373784 -7.315195 -1.9694463 1.025638 -2.2049556 0.3786303 2.594627 -2.7853267 -6.161272 -1.3765823 4.2257247 4.8210998 1.719518 -3.2280223 -1.3893464 -8.108398 2.599028 -6.3134046 -4.551067 -1.6579996 0.10152647 -5.1492248 -3.1948264 5.596342 0.19488631 -2.6754262 -0.7846806 0.29583582 -4.699945 0.08401465 1.1105883
*dt_188 -8.280969 6.052942 -7.2368407 2.097851 0.83834493 3.3642166 5.838851 -0.037957206 -0.5941979 -3.3010511 -1.9682115 2.0071921 0.52285326 -1.1101898 -4.8246465 -8.874602 1.7861745 -8.864809 -5.3413463 -1.6253896 -0.69036597 5.0505376 2.8120892 -1.1824647 -2.2346084 -0.71888185 8.230044 -8.5153265 -4.9143157 1.848641 0.08154331 2.3655043 -2.9746134 -9.489383 4.0507874 8.838486 -2.2870908 6.188774 6.34564 -5.3025455 -4.8752337 10.146572 4.082467 -0.97809 2.0371308 0.8975714 -8.463192 -1.002138 9.885411 2.3110259
*dt_189 0.5098012 3.6674743 1.7633108 1.1422043 -3.3458629 0.93842536 5.3132434 -5.0819097 -4.944389 0.6961624 9.032853 0.74483955 -0.29778114 -0.4226438 -1.7074785 1.2113364 -0.4804497 -0.5509017 3.383202 -4.3926897 -6.0899568 1.0417243 4.795901 0.35195413 -0.59490114 -0.07603492 2.5439534 -5.00004 -1.4245454 -3.3100684 1.9905673 5.469989 0.6501468 -6.0627394 -11.023927 0.21457155 -2.8330352 -2.7766466 0.35455674 -0.9422985 -3.3018377 -1.0229036 5.059819 -1.3173242 2.2039917 -1.071739 -4.4832153 -5.6032453 0.81210697 -3.530067
